<?xml version="1.0"?>
<opencv_storage>
<opencv_ml_svm>
  <format>3</format>
  <svmType>C_SVC</svmType>
  <kernel>
    <type>LINEAR</type></kernel>
  <C>1.</C>
  <term_criteria><iterations>100</iterations></term_criteria>
  <var_count>784</var_count>
  <class_count>8</class_count>
  <class_labels type_id="opencv-matrix">
    <rows>8</rows>
    <cols>1</cols>
    <dt>i</dt>
    <data>
      0 2 3 4 6 7 8 9</data></class_labels>
  <sv_total>28</sv_total>
  <support_vectors>
    <_>
      0. 0. 0. 0. 0. 0. 0. 0. 0. 9.98500127e-07 3.87337479e-07
      1.54792124e-05 1.50918740e-05 1.16544998e-05 1.31113493e-05
      1.86320685e-05 4.21620871e-06 0. 0. 0. 0. 0. 0. 0. 0. 0. 0. 0. 0.
      0. 0. 0. 0. 0. 0. 5.94237781e-06 4.58480235e-06 5.97063990e-06
      9.40801419e-06 1.64777121e-05 1.64777121e-05 3.41112827e-05
      3.43274041e-05 1.92355292e-05 6.12418035e-06 4.45510932e-06
      3.85164913e-06 3.85164913e-06 0. 0. 0. 0. 0. 0. 0. 0. 0. 0. 0. 0.
      0. 0. 1.35757568e-06 5.94237781e-06 5.94237781e-06 7.32821536e-06
      2.24200903e-05 4.10521607e-05 4.73424116e-05 5.37774649e-05
      5.37774649e-05 4.78350848e-05 4.64492477e-05 1.63380537e-05
      1.21218454e-05 1.21218454e-05 8.27019539e-06 5.68679161e-06 0. 0.
      0. 0. 0. 0. 0. 0. 0. 0. 0. 8.27019539e-06 9.62777176e-06
      1.42125737e-05 1.90627234e-05 4.21229634e-05 5.37774649e-05
      5.37774649e-05 5.37774649e-05 5.37774649e-05 5.37774649e-05
      5.37774649e-05 5.37774649e-05 5.37774649e-05 3.51453964e-05
      1.80642237e-05 9.62777176e-06 7.04436752e-06 0. 0. 0. 0. 0. 0. 0.
      0. 0. 3.85164913e-06 6.43505336e-06 1.21218454e-05 1.34794209e-05
      3.72997529e-05 3.86855900e-05 5.37774649e-05 5.37774649e-05
      5.37774649e-05 5.37774649e-05 5.37774649e-05 5.37774649e-05
      5.37774649e-05 5.37774649e-05 5.37774649e-05 4.06661165e-05
      3.45419357e-05 3.45419357e-05 1.26276700e-05 5.94237781e-06
      5.94237781e-06 0. 0. 0. 0. 0. 0. 0. 3.85164913e-06 6.43505336e-06
      1.63380537e-05 3.27149501e-05 3.82982507e-05 5.37774649e-05
      5.37774649e-05 4.74363114e-05 2.15828186e-05 1.74752586e-05
      -4.23516474e-21 -4.23516474e-21 1.22794399e-05 1.47555393e-05
      5.37774649e-05 5.37774649e-05 3.45419357e-05 3.45419357e-05
      2.81068824e-05 1.07655906e-05 6.94087794e-06 0. 0. 0. 0. 0. 0.
      6.03460137e-07 8.06785738e-06 2.56705825e-05 3.13573728e-05
      3.72997529e-05 3.86855900e-05 5.13013656e-05 2.15828186e-05
      2.15828186e-05 3.26268423e-06 -1.94500608e-05 -5.37774649e-05
      -3.06902839e-05 -2.62717385e-05 -1.16544998e-05 1.47555393e-05
      2.11704846e-05 3.87581422e-05 3.45419357e-05 3.06902839e-05
      2.24200903e-05 2.24200903e-05 4.82321229e-06 1.38583766e-06 0. 0.
      0. 4.21620871e-06 1.92355292e-05 2.30871792e-05 2.56705825e-05
      3.13573728e-05 3.72997529e-05 4.14980241e-05 3.07546470e-05
      1.45443055e-05 -1.90440587e-05 -1.69691702e-05 -2.15828186e-05
      -1.74752586e-05 -1.22794399e-05 3.80273673e-06 -1.29591162e-05
      -1.01406495e-05 1.47555393e-05 2.30228197e-05 3.45419357e-05
      3.06902839e-05 2.24200903e-05 2.10625149e-05 1.64777121e-05
      1.54792124e-05 0. 0. 0. 1.86320685e-05 1.92355292e-05
      1.92355292e-05 2.56705825e-05 3.13573728e-05 3.82982507e-05
      3.26069785e-05 7.66746689e-06 1.14730904e-06 1.12792679e-06
      -2.15828186e-05 -1.82556942e-05 -1.74752586e-05 0. -1.22794399e-05
      -1.93495589e-06 -3.00452984e-06 -6.30697514e-06 2.11704846e-05
      3.21946463e-05 3.06902839e-05 2.24200903e-05 2.10625149e-05
      1.64777121e-05 1.50918740e-05 1.16544998e-05 0. 0. 1.50193209e-05
      1.92355292e-05 1.92355292e-05 2.56705825e-05 3.13573728e-05
      4.14980241e-05 2.03160616e-05 5.08406265e-06 3.69720124e-06
      -2.69678526e-06 -3.63022082e-05 -4.02980440e-05 -3.47147397e-05
      -1.33911426e-05 -1.75151054e-05 -3.38622594e-05 4.50009702e-06
      1.14421691e-05 5.69127360e-06 3.09408897e-05 1.62862416e-05
      2.24200903e-05 2.10625149e-05 1.64777121e-05 1.50918740e-05 0. 0.
      0. 0. 1.86320685e-05 1.92355292e-05 2.56705825e-05 3.27149501e-05
      4.14980241e-05 1.97863956e-05 1.92158368e-05 2.55813825e-06
      -3.21946463e-05 -6.52406288e-06 3.16381966e-06 -4.23516474e-21
      -6.95608924e-06 -1.08412505e-05 -2.09040809e-05 -2.07941102e-05
      -8.37270989e-07 2.09555219e-05 3.21946463e-05 3.63022082e-05
      2.24200903e-05 1.64777121e-05 1.54792124e-05 1.16544998e-05 0. 0.
      0. 0. 1.50193209e-05 1.92355292e-05 2.30871792e-05 5.37774649e-05
      4.14980241e-05 1.97863956e-05 6.93639595e-06 -2.11704846e-05
      -1.88011654e-05 -8.06880507e-06 3.32712489e-06 -4.23516474e-21
      -6.35262904e-06 -4.50009702e-06 -1.73845474e-05 -3.86457432e-05
      -6.52406288e-06 -2.62541647e-07 3.21946463e-05 3.55217708e-05
      2.24200903e-05 1.64777121e-05 1.50918740e-05 0. 0. 0. 0. 0. 0.
      1.86320685e-05 3.47416790e-05 5.37774649e-05 5.37774649e-05
      2.28659537e-05 1.59347474e-05 -3.30112343e-05 -1.58804851e-05
      -1.00627658e-05 -4.23516474e-21 -4.23516474e-21 1.47555393e-05
      3.00452984e-06 -1.79193594e-05 -2.86751128e-05 -1.18473472e-05
      9.51598577e-06 3.21946463e-05 3.63022082e-05 4.10521607e-05
      1.64777121e-05 1.16544998e-05 0. 0. 0. 0. 0. 0. 1.31113493e-05
      3.47147397e-05 5.37774649e-05 5.37774649e-05 5.37774649e-05
      -1.10850733e-05 -2.51023521e-05 -2.59105764e-05 -4.23516474e-21
      -4.23516474e-21 -4.23516474e-21 5.37774649e-05 4.14980241e-05
      -2.11704846e-05 -3.21946463e-05 -2.15466680e-05 2.30228197e-05
      3.55217708e-05 5.37774649e-05 4.16556177e-05 1.50918740e-05 0. 0.
      0. 0. 0. 0. 0. 1.16544998e-05 3.57132412e-05 5.37774649e-05
      5.37774649e-05 3.55217708e-05 -2.91513584e-06 -3.26069785e-05
      -2.46477066e-05 2.15828186e-05 3.26069785e-05 5.37774649e-05
      5.37774649e-05 2.15828186e-05 -3.55217708e-05 -5.37774649e-05
      -3.26069785e-05 1.99152055e-05 2.40227655e-05 5.37774649e-05
      3.95648894e-05 1.86320685e-05 0. 0. 0. 0. 0. 0. 0. 1.50918740e-05
      3.41738632e-05 5.37774649e-05 3.63022082e-05 1.71027714e-05
      9.77455602e-06 -2.15466680e-05 -2.05401466e-05 -4.10380881e-06
      1.99152055e-05 2.11704846e-05 -4.23516474e-21 -2.24200903e-05
      -3.51453964e-05 -4.48864193e-05 -2.69303437e-05 8.36152503e-06
      3.90219247e-05 4.14980241e-05 4.07624575e-05 1.92355292e-05
      1.31113493e-05 0. 0. 0. 0. 0. 1.16544998e-05 1.64777121e-05
      2.24200903e-05 5.37774649e-05 3.55217708e-05 1.57169343e-05
      1.80779880e-05 -2.07662306e-05 -3.10584946e-05 -1.20630184e-05
      2.30228197e-05 1.47555393e-05 -1.50918740e-05 -2.24200903e-05
      -2.47715307e-05 -3.94261806e-05 -1.36422495e-05 2.62543490e-05
      3.89481320e-05 4.14980241e-05 2.56705825e-05 1.92355292e-05
      1.86320685e-05 0. 0. 0. 0. 0. 1.50918740e-05 1.64777121e-05
      2.24200903e-05 1.32150280e-05 3.55217708e-05 1.71027714e-05
      1.70060903e-05 1.79642313e-06 -2.30228197e-05 -3.39155122e-05
      -4.40619669e-06 6.24940810e-07 -1.64777121e-05 -1.06316238e-05
      -3.21946463e-05 -4.82333098e-06 1.06677753e-05 2.44020157e-05
      3.26069785e-05 3.90219247e-05 1.33911426e-05 1.92355292e-05
      1.92355292e-05 1.31113493e-05 0. 0. 0. 1.16544998e-05
      1.54792124e-05 1.64777121e-05 2.24200903e-05 1.32150280e-05
      3.21946463e-05 3.09408897e-05 -4.69168270e-07 6.90182742e-06
      -8.05913623e-06 -1.48293329e-05 -4.48864193e-05 -4.14980241e-05
      -5.37774649e-05 -5.37774649e-05 -1.63442292e-05 8.06880507e-06
      1.70827207e-05 1.97919526e-05 3.26069785e-05 2.25442127e-05
      1.33911426e-05 2.30871792e-05 1.92355292e-05 1.86320685e-05 0. 0.
      0. 3.43737474e-06 1.64777121e-05 1.64777121e-05 2.24200903e-05
      2.81068824e-05 2.92218647e-05 2.86751128e-05 2.11704846e-05
      -1.24152139e-05 -1.94102140e-05 -1.47555393e-05 -1.22794399e-05 0.
      -1.74752586e-05 -6.60119440e-06 -5.10510699e-06 2.51355550e-06
      2.18692185e-06 2.51023521e-05 3.26069785e-05 3.01650580e-05
      2.56705825e-05 2.30871792e-05 1.92355292e-05 1.86320685e-05 0. 0.
      0. 0. 1.38583766e-06 2.10625149e-05 2.24200903e-05 2.81068824e-05
      3.45419357e-05 4.69308070e-05 2.11704846e-05 1.47555393e-05
      6.50270749e-07 -3.23988352e-05 -2.55588275e-05 -9.17182660e-06
      -1.85233353e-06 -1.17409245e-05 -1.96021447e-05 1.74752586e-05
      2.15828186e-05 2.51023521e-05 2.94072070e-05 3.27149501e-05
      2.56705825e-05 2.30871792e-05 1.92355292e-05 6.03460137e-07 0. 0.
      0. 0. 0. 5.58330248e-06 7.32821536e-06 2.81068824e-05
      3.45419357e-05 3.51453964e-05 4.27533050e-05 3.64121515e-05
      1.22794399e-05 -4.23516474e-21 -4.23516474e-21 -4.23516474e-21
      -4.23516474e-21 -4.23516474e-21 -4.23516474e-21 1.82556942e-05
      3.63383588e-05 2.82771853e-05 3.72997529e-05 3.13573728e-05
      2.56705825e-05 4.45510932e-06 0. 0. 0. 0. 0. 0. 0. 4.58480235e-06
      5.94237781e-06 1.16291694e-05 1.55984108e-05 3.45419357e-05
      5.37774649e-05 5.19251298e-05 4.55101836e-05 4.30340842e-05
      1.24989510e-05 1.10241599e-05 1.61115568e-05 1.07433789e-05
      4.04980783e-05 4.12785121e-05 4.46056365e-05 3.82982507e-05
      3.72997529e-05 1.27253052e-05 1.21218454e-05 6.43505336e-06 0. 0.
      0. 0. 0. 0. 0. 0. 1.35757568e-06 7.04436752e-06 1.42125737e-05
      1.80642237e-05 2.00535214e-05 5.37774649e-05 5.37774649e-05
      5.37774649e-05 5.13013656e-05 2.52352747e-05 2.40227655e-05
      5.29970275e-05 5.04503405e-05 5.37774649e-05 4.21229634e-05
      1.86676825e-05 1.80642237e-05 1.21218454e-05 8.27019539e-06
      2.58340401e-06 0. 0. 0. 0. 0. 0. 0. 0. 0. 5.68679161e-06
      8.27019539e-06 1.21218454e-05 1.21218454e-05 1.82460262e-05
      4.30118744e-05 5.37774649e-05 5.37774649e-05 5.37774649e-05
      5.37774649e-05 5.37774649e-05 5.37774649e-05 4.38016359e-05
      1.30150074e-05 1.16291694e-05 7.04436752e-06 5.68679161e-06 0. 0.
      0. 0. 0. 0. 0. 0. 0. 0. 0. 0. 2.58340401e-06 6.43505336e-06
      6.43505336e-06 7.03851356e-06 2.30871792e-05 2.30871792e-05
      3.08900308e-05 3.47147397e-05 3.57132412e-05 3.14970312e-05
      2.10625149e-05 1.07655906e-05 6.94087794e-06 5.94237781e-06
      1.35757568e-06 0. 0. 0. 0. 0. 0. 0. 0. 0. 0. 0. 0. 0. 0. 0. 0.
      6.03460137e-07 6.12418035e-06 1.92355292e-05 1.86320685e-05
      1.86320685e-05 1.50918740e-05 1.50918740e-05 4.82321229e-06
      1.38583766e-06 0. 0. 0. 0. 0. 0. 0. 0. 0. 0. 0. 0. 0. 0. 0. 0. 0.
      0. 0. 0. 0. 1.50193209e-05 0. 0. 0. 0. 0. 0. 0. 0. 0. 0. 0. 0. 0.
      0. 0. 0.</_>
    <_>
      0. 0. 0. 0. 0. 0. 0. 0. 0. 9.06068124e-07 8.80839764e-07
      1.69507184e-05 1.60698801e-05 1.20840405e-05 1.17649824e-05
      1.63192053e-05 6.62008142e-06 0. 0. 0. 0. 0. 0. 0. 0. 0. 0. 0. 0.
      0. 0. 0. 0. 0. 0. 5.49239348e-06 3.72110298e-06 5.47637592e-06
      9.49384957e-06 1.78567880e-05 1.78567880e-05 3.32699237e-05
      3.44549444e-05 1.83850643e-05 6.62008142e-06 5.79077050e-06
      3.72491263e-06 3.72491263e-06 0. 0. 0. 0. 0. 0. 0. 0. 0. 0. 0. 0.
      0. 2.17036700e-07 2.07993344e-06 5.80103642e-06 5.80103642e-06
      7.58794431e-06 2.36578235e-05 3.99770288e-05 4.65437151e-05
      5.24295356e-05 5.24295356e-05 4.68455364e-05 4.48732280e-05
      1.70067306e-05 1.03866496e-05 1.03866496e-05 6.66173673e-06
      4.50082734e-06 0. 0. 0. 0. 0. 0. 0. 0. 0. 0. 1.27964449e-06
      6.87877309e-06 8.74167017e-06 1.24627732e-05 1.70937546e-05
      4.03454978e-05 5.24295356e-05 5.24295356e-05 5.24295356e-05
      5.24295356e-05 5.24295356e-05 5.24295356e-05 5.24295356e-05
      5.24295356e-05 3.61103303e-05 1.61876851e-05 8.74167017e-06
      6.58076078e-06 3.08642768e-07 0. 0. 0. 0. 0. 0. 0. 0.
      3.72491263e-06 5.88582179e-06 1.06036860e-05 1.24665830e-05
      3.45727494e-05 3.63596591e-05 5.24295356e-05 4.60973388e-05
      4.21021250e-05 2.58688542e-05 1.34517486e-05 1.23502405e-05
      3.25787259e-05 5.13280283e-05 5.24295356e-05 4.06645559e-05
      3.40444712e-05 3.40444712e-05 1.12079324e-05 5.80103642e-06
      5.58399961e-06 0. 0. 0. 0. 0. 0. 0. 3.72491263e-06 5.88582179e-06
      1.72237669e-05 3.08516464e-05 3.54788172e-05 4.68340731e-05
      4.00792960e-05 4.00792960e-05 1.47444935e-05 2.11758237e-22
      2.11758237e-22 2.11758237e-22 1.25537963e-05 2.02380834e-05
      4.00792960e-05 4.64114964e-05 3.40444712e-05 3.40444712e-05
      2.94382953e-05 9.89381351e-06 6.49006779e-06 0. 0. 0. 0. 0. 0.
      2.06585764e-06 1.03449938e-05 2.42708866e-05 2.89887503e-05
      3.45727494e-05 2.96310500e-05 3.76257012e-05 1.87397054e-05
      1.47444935e-05 -6.13057364e-06 -9.95305163e-06 -2.71000572e-05
      -1.18902690e-05 -2.73827372e-05 4.69755889e-07 2.13395906e-05
      2.13395906e-05 2.99145668e-05 3.40444712e-05 3.03195593e-05
      2.34407871e-05 2.33491810e-05 4.09277754e-06 1.75527305e-06 0. 0.
      0. 6.62008142e-06 1.83850643e-05 2.21099763e-05 2.42708866e-05
      2.89887503e-05 2.57869560e-05 2.57674401e-05 2.50719058e-05
      1.07880260e-05 -1.38102150e-05 -6.65566495e-06 -1.47444935e-05
      -1.10650190e-05 -1.25537963e-05 -3.91887670e-06 9.59927002e-06
      3.55207135e-06 2.13395906e-05 2.69350567e-05 8.97256814e-06
      3.03195593e-05 2.34407871e-05 2.15778909e-05 1.78567880e-05
      1.69507184e-05 0. 0. 0. 1.63192053e-05 1.83850643e-05
      1.83850643e-05 2.42708866e-05 1.64349531e-05 1.41392275e-05
      2.57674401e-05 4.06343588e-06 1.45501554e-05 6.20073115e-06
      -2.50719058e-05 -2.50719058e-05 -1.87397054e-05 -3.23992863e-05
      -2.13395906e-05 9.59927002e-06 1.75739133e-05 1.85014051e-05
      2.69350567e-05 3.36898302e-05 1.15798548e-05 2.34407871e-05
      2.15778909e-05 1.78567880e-05 1.61015141e-05 1.20840405e-05 0. 0.
      1.17649824e-05 1.83850643e-05 1.83850643e-05 2.42708866e-05
      1.65265592e-05 3.10899450e-05 1.47707406e-05 2.10391026e-05
      9.22764957e-06 -1.36770745e-06 -2.51312467e-05 -1.86233628e-05
      -8.40072698e-06 -1.08191380e-05 -1.99825699e-05 -2.69350567e-05
      1.69731993e-05 1.66385089e-05 2.47288299e-05 3.36898302e-05
      1.92999796e-05 1.23757682e-05 2.15778909e-05 1.78567880e-05
      1.60698801e-05 0. 0. 0. 0. 1.63192053e-05 1.83850643e-05
      2.42708866e-05 1.82978492e-05 3.21914522e-05 2.52586797e-05
      1.88783870e-05 -9.07826870e-06 -3.36898302e-05 -2.81586508e-05
      4.16820376e-06 2.69350567e-05 -4.93331572e-06 -9.84142298e-06
      -1.58330440e-05 -1.73706248e-05 5.68496534e-06 2.05658635e-05
      3.36898302e-05 3.76850439e-05 2.34407871e-05 1.78567880e-05
      1.69507184e-05 1.20840405e-05 0. 0. 0. 0. 1.17649824e-05
      1.83850643e-05 2.21099763e-05 5.24295356e-05 3.47747446e-05
      1.27048825e-05 6.81906067e-06 -2.13395906e-05 -1.73706248e-05
      -2.33491810e-05 2.69350567e-05 5.24295356e-05 2.35565349e-05
      1.22359529e-06 -1.58330440e-05 -5.24295356e-05 -2.81586508e-05
      1.75883179e-05 3.36898302e-05 4.13645175e-05 2.34407871e-05
      1.78567880e-05 1.60698801e-05 0. 0. 0. 0. 0. 0. 1.63192053e-05
      3.41940176e-05 5.24295356e-05 3.98757402e-05 1.58722469e-05
      1.00814768e-05 -2.13395906e-05 -3.40444712e-05 -1.78567880e-05
      3.76850439e-05 5.24295356e-05 5.24295356e-05 2.81586508e-05
      -6.65452546e-07 -5.24295356e-05 -4.20845427e-05 -1.06109360e-06
      3.76850439e-05 5.24295356e-05 3.97599943e-05 1.78567880e-05
      1.20840405e-05 0. 0. 0. 0. 0. 0. 1.17649824e-05 3.53357827e-05
      5.24295356e-05 5.24295356e-05 3.98757402e-05 1.79429589e-05
      -2.02380834e-05 -4.06645559e-05 2.02380834e-05 2.73576316e-05
      3.36898302e-05 3.21914522e-05 3.21914522e-05 -1.47444935e-05
      -3.10899450e-05 -5.24295356e-05 1.87397054e-05 3.98757402e-05
      5.24295356e-05 4.17342453e-05 1.61015141e-05 0. 0. 0. 0. 0. 0. 0.
      1.20840405e-05 3.62418505e-05 5.24295356e-05 5.24295356e-05
      3.76850439e-05 3.50905020e-06 0. -2.16057906e-05 1.47444935e-05
      2.11758237e-22 2.11758237e-22 2.11758237e-22 1.87397054e-05
      -2.02380834e-05 -2.50719058e-05 -3.21914522e-05 1.87397054e-05
      3.21914522e-05 5.24295356e-05 3.99667624e-05 1.63192053e-05 0. 0.
      0. 0. 0. 0. 0. 1.61015141e-05 3.33428725e-05 5.24295356e-05
      4.13645175e-05 1.75883179e-05 1.03406501e-05 -1.87397054e-05
      -2.23200732e-05 6.68684106e-06 2.50719058e-05 2.11758237e-22
      2.11758237e-22 -2.34407871e-05 -7.90679678e-06 -1.87397054e-05
      -2.32760667e-05 2.97951055e-06 3.10899450e-05 5.24295356e-05
      4.03724007e-05 1.83850643e-05 1.17649824e-05 0. 0. 0. 0. 0.
      1.37640100e-05 1.78567880e-05 2.33491810e-05 5.24295356e-05
      3.76850439e-05 1.58330440e-05 1.49818634e-05 -2.50719058e-05
      -8.97039081e-06 -1.49904281e-05 2.11360348e-05 2.73576316e-05
      4.16820376e-06 -4.70108125e-06 -2.95452651e-06 -3.12935008e-05
      -6.58975796e-06 2.42049941e-06 3.10899450e-05 5.24295356e-05
      2.42708866e-05 1.83850643e-05 1.63192053e-05 0. 0. 0. 0. 0.
      1.61015141e-05 1.78567880e-05 2.34407871e-05 3.03195593e-05
      3.36898302e-05 1.35936216e-05 1.82387630e-05 6.03482340e-06
      -1.63454533e-05 -2.55059458e-05 1.85301906e-06 -1.20840405e-05
      -1.78567880e-05 -1.06985899e-05 -2.13395906e-05 -8.97039081e-06
      -5.33644879e-06 8.75269870e-06 3.10899450e-05 5.24295356e-05
      2.42708866e-05 1.83850643e-05 1.83850643e-05 1.17649824e-05 0. 0.
      0. 1.37640100e-05 1.69507184e-05 1.78567880e-05 2.34407871e-05
      3.03195593e-05 3.36898302e-05 2.73576316e-05 -2.10119651e-06
      1.60919353e-05 2.06214327e-06 -1.48038353e-05 -3.76850439e-05
      -3.36898302e-05 -2.73576316e-05 -2.13395906e-05 -1.64022022e-05
      -7.64915967e-06 -8.24674771e-06 2.05176821e-05 3.21914522e-05
      3.45727494e-05 2.42708866e-05 2.21099763e-05 1.83850643e-05
      1.63192053e-05 0. 0. 0. 4.01747320e-06 1.78567880e-05
      1.78567880e-05 2.34407871e-05 2.81586508e-05 3.40444712e-05
      2.73576316e-05 2.66620955e-05 -1.00814768e-05 -1.67999278e-05
      -3.24046086e-05 -2.02380834e-05 -1.25537963e-05 0. -6.65566495e-06
      -9.01216117e-06 -2.87717139e-05 1.58199896e-06 3.10899450e-05
      5.24295356e-05 3.08516464e-05 2.42708866e-05 2.21099763e-05
      1.83850643e-05 1.63192053e-05 0. 0. 0. 0. 4.09277754e-06
      2.15778909e-05 2.34407871e-05 2.81586508e-05 3.40444712e-05
      4.60973388e-05 2.69350567e-05 2.13395906e-05 1.06389427e-06
      -4.06645559e-05 -4.87447396e-05 -2.65959879e-05 -4.36437440e-05
      -3.45727494e-05 -2.69194461e-05 1.47444935e-05 2.54944807e-05
      5.24295356e-05 3.54788172e-05 3.08516464e-05 2.42708866e-05
      2.21099763e-05 1.83850643e-05 4.95227005e-06 0. 0. 0. 0. 0.
      4.62717117e-06 7.37090750e-06 2.81586508e-05 3.40444712e-05
      3.61103303e-05 5.24295356e-05 4.00792960e-05 2.02380834e-05
      2.11758237e-22 2.11758237e-22 2.11758237e-22 2.11758237e-22
      2.11758237e-22 1.87397054e-05 2.54944807e-05 5.24295356e-05
      3.86655265e-05 3.45727494e-05 2.90803564e-05 2.42708866e-05
      5.79077050e-06 0. 0. 0. 0. 0. 0. 0. 3.72110298e-06 5.58399961e-06
      1.03018638e-05 1.42496810e-05 3.40444712e-05 5.24295356e-05
      5.24295356e-05 5.24295356e-05 3.80482779e-05 2.54944807e-05
      3.10899450e-05 3.10899450e-05 3.47747446e-05 5.24295356e-05
      5.24295356e-05 5.24295356e-05 3.54788172e-05 3.45727494e-05
      1.26695440e-05 1.03866496e-05 4.60617730e-06 0. 0. 0. 0. 0. 0. 0.
      0. 1.86289674e-06 6.58076078e-06 1.24627732e-05 1.61876851e-05
      2.00404520e-05 5.24295356e-05 5.24295356e-05 5.24295356e-05
      5.24295356e-05 5.24295356e-05 5.24295356e-05 5.24295356e-05
      5.24295356e-05 5.24295356e-05 4.03454978e-05 1.82535441e-05
      1.61876851e-05 1.06036860e-05 6.66173673e-06 8.81264555e-07 0. 0.
      0. 0. 0. 0. 0. 0. 0. 4.71786416e-06 6.87877309e-06 1.06036860e-05
      1.06036860e-05 1.72237669e-05 4.11643960e-05 5.24295356e-05
      5.24295356e-05 5.24295356e-05 5.24295356e-05 5.24295356e-05
      5.24295356e-05 4.20845427e-05 1.20571367e-05 1.03018638e-05
      6.58076078e-06 4.71786416e-06 0. 0. 0. 0. 0. 0. 0. 0. 0. 0. 0. 0.
      2.16090916e-06 5.88582179e-06 5.88582179e-06 6.67203494e-06
      2.21099763e-05 2.21099763e-05 3.21490734e-05 3.53357827e-05
      3.62418505e-05 2.96217695e-05 2.15778909e-05 9.58517103e-06
      6.49006779e-06 5.58399961e-06 1.86289674e-06 0. 0. 0. 0. 0. 0. 0.
      0. 0. 0. 0. 0. 0. 0. 0. 0. 2.06585764e-06 6.62008142e-06
      1.83850643e-05 1.63192053e-05 1.34327938e-05 1.37640100e-05
      1.61015141e-05 5.77274659e-06 1.75527305e-06 0. 0. 0. 0. 0. 0. 0.
      0. 0. 0. 0. 0. 0. 0. 0. 0. 0. 0. 0. 0. 0. 1.17649824e-05 0. 0. 0.
      0. 0. 0. 0. 0. 0. 0. 0. 0. 0. 0. 0. 0.</_>
    <_>
      0. 0. 0. 0. 0. 0. 0. 0. 0. 1.21042251e-06 1.13428769e-06
      1.52238617e-05 1.40895745e-05 1.21538005e-05 8.43711678e-06
      1.05115905e-05 4.16527473e-06 0. 0. 0. 0. 0. 0. 0. 0. 0. 0. 0. 0.
      0. 0. 0. 0. 0. 0. 4.07212428e-06 2.38182338e-06 4.72653346e-06
      6.66230699e-06 1.64342837e-05 1.64342837e-05 2.57354513e-05
      2.80622935e-05 1.39727190e-05 5.53560221e-06 6.29079204e-06
      2.82966380e-06 2.82966380e-06 0. 0. 0. 0. 0. 0. 0. 0. 0. 0. 0. 0.
      0. 4.68718071e-07 2.15901923e-06 4.54084238e-06 4.54084238e-06
      6.88555247e-06 2.09751270e-05 3.14867175e-05 3.88984881e-05
      4.17281517e-05 4.17281517e-05 3.76560274e-05 3.48425965e-05
      1.09455796e-05 6.78030483e-06 6.78030483e-06 3.95064126e-06
      3.95064126e-06 0. 0. 0. 0. 0. 0. 0. 0. 0. 0. 0. 4.41935890e-06
      6.10966026e-06 8.49148364e-06 1.25315701e-05 2.95743503e-05
      4.17281517e-05 4.17281517e-05 4.17281517e-05 4.17281517e-05
      4.17281517e-05 4.17281517e-05 4.17281517e-05 4.17281517e-05
      3.12165612e-05 1.13211472e-05 6.10966026e-06 6.10966026e-06
      4.68718071e-07 0. 0. 0. 0. 0. 0. 0. 0. 2.82966380e-06
      2.82966380e-06 7.24902293e-06 8.93932429e-06 2.52938662e-05
      2.76385763e-05 4.17281517e-05 4.17281517e-05 4.17281517e-05
      4.17281517e-05 4.17281517e-05 4.17281517e-05 4.17281517e-05
      4.17281517e-05 4.17281517e-05 3.32910349e-05 2.77554318e-05
      2.77554318e-05 9.70190558e-06 4.54084238e-06 4.07212428e-06 0. 0.
      0. 0. 0. 0. 0. 2.82966380e-06 2.82966380e-06 1.14142977e-05
      2.29120433e-05 2.65042891e-05 4.17281517e-05 4.17281517e-05
      4.17281517e-05 2.18320547e-05 2.02014016e-05 2.36868746e-05
      3.04319183e-05 1.99716724e-05 2.06130262e-05 4.17281517e-05
      4.17281517e-05 2.77554318e-05 2.77554318e-05 2.49257682e-05
      8.82132645e-06 5.28254668e-06 0. 0. 0. 0. 0. 0. 3.46112847e-06
      6.99493876e-06 1.68023817e-05 2.12217419e-05 2.52938662e-05
      2.76385763e-05 4.17281517e-05 2.18320547e-05 2.18320547e-05
      9.43356554e-06 -2.99390740e-06 -2.15267501e-05 -5.98416909e-06
      -3.90869536e-06 7.74229466e-06 2.38031025e-05 3.02378303e-05
      3.19207065e-05 2.77554318e-05 2.49257682e-05 2.05064080e-05
      2.05064080e-05 4.28048361e-06 2.34471031e-06 0. 0. 0.
      4.16527473e-06 1.39727190e-05 1.68023817e-05 1.68023817e-05
      2.12217419e-05 2.52938662e-05 4.17281517e-05 2.27865512e-05
      1.55412636e-05 -3.46181105e-06 -7.85351131e-06 -2.92833338e-05
      -3.78211444e-05 -1.24448170e-05 -1.13204651e-05 3.55540783e-06
      3.29669297e-06 3.02378303e-05 3.02378303e-05 2.77554318e-05
      2.49257682e-05 2.05064080e-05 1.88161084e-05 1.64342837e-05
      1.52238617e-05 0. 0. 0. 1.05115905e-05 1.39727190e-05
      1.39727190e-05 1.68023817e-05 2.12217419e-05 2.65042891e-05
      4.17281517e-05 5.98416909e-06 -1.07998767e-06 -2.81741336e-06
      -1.99364586e-05 -4.00567224e-05 -3.13864148e-05 -1.63518234e-05
      -1.03417342e-05 3.63098411e-06 5.38763834e-06 1.14217219e-05
      3.02378303e-05 4.17281517e-05 2.49257682e-05 2.05064080e-05
      1.88161084e-05 1.64342837e-05 1.40895745e-05 1.21538005e-05 0. 0.
      9.80744335e-06 1.39727190e-05 1.39727190e-05 1.68023817e-05
      2.12217419e-05 4.17281517e-05 3.12165612e-05 5.98416909e-06
      -4.98699410e-06 -1.73777953e-05 -3.05431349e-05 -2.24470914e-05
      -1.88548456e-05 1.36295366e-05 -3.34931633e-06 -1.79250492e-05
      5.31206206e-06 9.73142141e-06 2.64287119e-05 4.17281517e-05
      2.77554318e-05 2.05064080e-05 1.88161084e-05 1.64342837e-05
      1.40895745e-05 0. 0. 0. 0. 1.05115905e-05 1.39727190e-05
      1.68023817e-05 2.29120433e-05 4.17281517e-05 2.77554318e-05
      5.98416909e-06 -2.52938662e-05 -2.95315949e-05 -1.37407533e-05
      -3.74783963e-06 1.14903205e-05 -2.48239826e-06 -1.68023817e-05
      -1.49521311e-05 -9.78730100e-07 1.06150637e-05 2.52938662e-05
      4.17281517e-05 4.17281517e-05 2.05064080e-05 1.64342837e-05
      1.52238617e-05 1.21538005e-05 0. 0. 0. 0. 9.80744335e-06
      1.39727190e-05 1.68023817e-05 4.17281517e-05 4.17281517e-05
      2.77554318e-05 -1.28953761e-05 -4.17281517e-05 -1.90200044e-05
      1.41245855e-05 1.79250492e-05 1.06066773e-05 -1.05115905e-05
      -1.68023817e-05 -2.52938662e-05 -2.00073118e-05 8.09130233e-06
      2.76385763e-05 4.17281517e-05 4.17281517e-05 2.05064080e-05
      1.64342837e-05 1.40895745e-05 0. 0. 0. 0. 0. 0. 1.05115905e-05
      2.89561831e-05 4.17281517e-05 4.17281517e-05 1.97262398e-05
      -1.68023817e-05 -4.17281517e-05 2.67648761e-06 1.65827860e-05
      -1.48230766e-21 -1.48230766e-21 1.98960952e-05 3.81064319e-06
      -2.84569469e-05 -4.17281517e-05 -1.29011569e-05 1.06327507e-05
      4.17281517e-05 4.17281517e-05 3.10180003e-05 1.64342837e-05
      1.21538005e-05 0. 0. 0. 0. 0. 0. 8.43711678e-06 2.91965807e-05
      4.17281517e-05 4.17281517e-05 2.38031025e-05 -2.80622935e-05
      -3.02378303e-05 8.43711678e-06 2.38031025e-05 -1.48230766e-21
      -1.48230766e-21 3.02378303e-05 4.17281517e-05 -4.17281517e-05
      -4.17281517e-05 -3.13864148e-05 2.18320547e-05 3.30170697e-05
      4.17281517e-05 3.44791260e-05 1.40895745e-05 0. 0. 0. 0. 0. 0. 0.
      1.21538005e-05 3.04070036e-05 4.17281517e-05 3.02378303e-05
      1.98960952e-05 -2.69458742e-05 -3.02378303e-05 1.21538005e-05
      2.95482769e-05 -1.48230766e-21 -1.48230766e-21 2.27865512e-05
      4.17281517e-05 -2.27865512e-05 -2.27865512e-05 -1.12962316e-05
      1.79250492e-05 2.27865512e-05 4.17281517e-05 3.32366653e-05
      1.05115905e-05 0. 0. 0. 0. 0. 0. 0. 1.40895745e-05 2.72532252e-05
      4.17281517e-05 3.02378303e-05 5.80652113e-06 -2.05064080e-05
      -1.99716724e-05 1.21538005e-05 2.28939280e-05 1.14903205e-05
      1.14903205e-05 2.95315949e-05 2.12217419e-05 -1.13204651e-05
      -2.18320547e-05 -1.23905074e-05 3.05320373e-06 2.18320547e-05
      4.17281517e-05 3.08919552e-05 1.39727190e-05 8.43711678e-06 0. 0.
      0. 0. 0. 1.21538005e-05 1.64342837e-05 2.05064080e-05
      4.17281517e-05 4.17281517e-05 3.46181105e-06 -1.17953286e-05
      -3.13864148e-05 -9.59730096e-06 2.49257682e-05 3.30170697e-05
      4.17281517e-05 2.76385763e-05 1.06150637e-05 2.48239826e-06
      -1.82353651e-05 -2.12217419e-05 9.78730100e-07 2.89292111e-05
      4.17281517e-05 1.68023817e-05 1.39727190e-05 1.05115905e-05 0. 0.
      0. 0. 0. 1.40895745e-05 1.64342837e-05 2.05064080e-05
      2.49257682e-05 4.17281517e-05 1.81152118e-05 -9.01608837e-06
      -2.77554318e-05 -3.40286097e-05 -1.77599304e-05 1.65300535e-05
      1.92326152e-05 1.41088512e-05 -2.13921612e-06 -3.90700643e-06
      -8.69697760e-06 -9.70522706e-06 9.78730100e-07 3.30170697e-05
      4.17281517e-05 1.68023817e-05 1.39727190e-05 1.39727190e-05
      8.43711678e-06 0. 0. 0. 1.21538005e-05 1.52238617e-05
      1.64342837e-05 2.05064080e-05 2.49257682e-05 4.17281517e-05
      4.17281517e-05 9.92551031e-06 -1.34354477e-05 -3.32910349e-05
      -2.27865512e-05 -1.80412753e-05 -3.02378303e-05 -3.13864148e-05
      -1.98960952e-05 -3.32102391e-05 -2.28014301e-06 6.88449290e-06
      1.68050719e-05 2.95315949e-05 2.52938662e-05 1.68023817e-05
      1.68023817e-05 1.39727190e-05 1.05115905e-05 0. 0. 0.
      1.93577353e-06 1.64342837e-05 1.64342837e-05 2.05064080e-05
      2.49257682e-05 2.77554318e-05 4.17281517e-05 4.17281517e-05
      -7.48687762e-06 -1.74136967e-05 -3.13108394e-05 -3.02378303e-05
      -3.02378303e-05 -3.13864148e-05 -1.92326152e-05 -2.43393697e-05
      -1.30534827e-05 2.05607262e-06 2.18320547e-05 2.27865512e-05
      2.29120433e-05 1.68023817e-05 1.68023817e-05 1.39727190e-05
      1.05115905e-05 0. 0. 0. 0. 3.16308046e-06 1.88161084e-05
      2.05064080e-05 2.49257682e-05 2.77554318e-05 4.17281517e-05
      4.17281517e-05 3.02378303e-05 1.85025112e-06 -2.19948033e-05
      -3.40286097e-05 -2.18320547e-05 -1.63518234e-05 -1.58658549e-05
      -2.12217419e-05 1.79250492e-05 2.18320547e-05 2.18320547e-05
      2.65042891e-05 2.29120433e-05 1.68023817e-05 1.68023817e-05
      1.39727190e-05 3.46112847e-06 0. 0. 0. 0. 0. 3.59224578e-06
      6.41683437e-06 2.49257682e-05 2.77554318e-05 3.12165612e-05
      4.17281517e-05 4.17281517e-05 3.02378303e-05 3.02378303e-05
      1.98960952e-05 1.98960952e-05 1.89415987e-05 2.36868746e-05
      2.02014016e-05 1.79250492e-05 4.07736552e-05 2.95743503e-05
      2.52938662e-05 2.12217419e-05 1.68023817e-05 6.29079204e-06 0. 0.
      0. 0. 0. 0. 0. 2.38182338e-06 4.07212428e-06 8.49148364e-06
      1.08361937e-05 2.77554318e-05 4.17281517e-05 4.17281517e-05
      4.17281517e-05 4.17281517e-05 3.02378303e-05 3.02378303e-05
      3.52934221e-05 3.52934221e-05 3.21033476e-05 4.17281517e-05
      4.17281517e-05 2.65042891e-05 2.52938662e-05 1.07101514e-05
      6.78030483e-06 2.82966380e-06 0. 0. 0. 0. 0. 0. 0. 0.
      1.69030102e-06 6.10966026e-06 8.49148364e-06 1.13211472e-05
      1.71269858e-05 4.17281517e-05 4.17281517e-05 4.17281517e-05
      4.17281517e-05 4.17281517e-05 4.17281517e-05 4.17281517e-05
      4.17281517e-05 4.17281517e-05 2.95743503e-05 1.47822757e-05
      1.13211472e-05 7.24902293e-06 3.95064126e-06 0. 0. 0. 0. 0. 0. 0.
      0. 0. 0. 4.41935890e-06 4.41935890e-06 7.24902293e-06
      7.24902293e-06 1.27846251e-05 3.33755415e-05 4.17281517e-05
      4.17281517e-05 4.17281517e-05 4.17281517e-05 4.17281517e-05
      4.17281517e-05 3.33628850e-05 1.08361937e-05 8.49148364e-06
      6.10966026e-06 4.41935890e-06 0. 0. 0. 0. 0. 0. 0. 0. 0. 0. 0. 0.
      0. 2.82966380e-06 2.82966380e-06 6.29079204e-06 1.68023817e-05
      1.68023817e-05 2.61265195e-05 2.91965807e-05 3.04070036e-05
      2.62417288e-05 1.88161084e-05 8.35260835e-06 5.28254668e-06
      4.07212428e-06 1.69030102e-06 0. 0. 0. 0. 0. 0. 0. 0. 0. 0. 0. 0.
      0. 0. 0. 0. 3.46112847e-06 5.53560221e-06 1.39727190e-05
      1.05115905e-05 1.05115905e-05 1.32712039e-05 1.40895745e-05
      4.28048361e-06 2.34471031e-06 0. 0. 0. 0. 0. 0. 0. 0. 0. 0. 0. 0.
      0. 0. 0. 0. 0. 0. 0. 0. 0. 9.80744335e-06 0. 0. 0. 0. 0. 0. 0. 0.
      0. 0. 0. 0. 0. 0. 0. 0.</_>
    <_>
      0. 0. 0. 0. 0. 0. 0. 0. 0. 0. 4.18766467e-06 1.73580902e-05
      1.31704255e-05 1.22776955e-05 5.77726951e-06 1.09730781e-05
      3.96456517e-06 0. 0. 0. 0. 0. 0. 0. 0. 0. 0. 0. 0. 0. 0. 0. 0. 0.
      0. 3.65426877e-06 3.65426877e-06 7.84193344e-06 8.73466433e-06
      1.73580902e-05 1.73580902e-05 2.83311692e-05 2.76477076e-05
      1.44772830e-05 8.70001350e-06 6.88804039e-06 3.38383620e-06
      3.38383620e-06 0. 0. 0. 0. 0. 0. 0. 0. 0. 0. 0. 0. 0.
      1.47137632e-06 1.47137632e-06 5.12564520e-06 5.12564520e-06
      9.31330942e-06 2.24837349e-05 3.34568140e-05 4.20096039e-05
      4.53934372e-05 4.53934372e-05 4.17391711e-05 3.60801278e-05
      1.23969858e-05 8.43242105e-06 8.43242105e-06 5.04858463e-06
      5.04858463e-06 0. 0. 0. 0. 0. 0. 0. 0. 0. 0. 0. 6.51996106e-06
      6.51996106e-06 1.01742298e-05 1.35580658e-05 3.31157426e-05
      4.53934372e-05 4.53934372e-05 4.53934372e-05 4.53934372e-05
      4.53934372e-05 4.53934372e-05 4.53934372e-05 4.53934372e-05
      3.44203618e-05 1.35580658e-05 6.51996106e-06 6.51996106e-06
      1.47137632e-06 0. 0. 0. 0. 0. 0. 0. 0. 3.38383620e-06
      3.38383620e-06 9.90379704e-06 9.90379704e-06 2.80353488e-05
      3.22230117e-05 4.53934372e-05 4.53934372e-05 4.53934372e-05
      4.53934372e-05 3.54281474e-05 4.53934372e-05 4.53934372e-05
      4.53934372e-05 4.53934372e-05 3.48807225e-05 3.09161551e-05
      3.09161551e-05 1.01742298e-05 5.12564520e-06 3.65426877e-06 0. 0.
      0. 0. 0. 0. 0. 3.38383620e-06 3.38383620e-06 1.38683617e-05
      2.43810791e-05 2.80353488e-05 4.53934372e-05 4.53934372e-05
      4.53934372e-05 2.29884481e-05 2.29884481e-05 1.57317445e-05
      2.81714438e-05 3.81367354e-05 3.20270192e-05 3.81367354e-05
      4.53934372e-05 3.09161551e-05 3.09161551e-05 2.75323200e-05
      1.02060403e-05 3.65426877e-06 0. 0. 0. 0. 0. 0. 3.50420441e-06
      7.34840114e-06 1.78611190e-05 2.43810791e-05 2.80353488e-05
      3.22230117e-05 4.53934372e-05 3.29537397e-05 2.29884481e-05
      1.28142192e-05 -2.01398552e-06 -2.96616945e-05 -5.47059199e-06
      -3.46258139e-06 1.01272954e-05 2.24049909e-05 2.96616945e-05
      2.87710045e-05 3.09161551e-05 2.75323200e-05 2.10123599e-05
      2.10123599e-05 5.08039557e-06 4.18766467e-06 0. 0. 0.
      3.96456517e-06 1.44772830e-05 1.78611190e-05 1.78611190e-05
      2.43810791e-05 2.80353488e-05 4.53934372e-05 4.53934372e-05
      1.61004082e-05 -5.04689979e-06 -4.94429923e-06 -3.54281474e-05
      -4.53934372e-05 -3.81367354e-05 -6.90581101e-06 -8.51116602e-06
      1.39263102e-06 2.96616945e-05 2.96616945e-05 1.51844115e-05
      2.75323200e-05 2.10123599e-05 2.10123599e-05 1.73580902e-05
      1.73580902e-05 0. 0. 0. 1.09730781e-05 1.44772830e-05
      1.44772830e-05 1.78611190e-05 2.43810791e-05 2.80353488e-05
      4.53934372e-05 1.50926207e-05 -1.39263102e-06 -2.80353488e-05
      -2.29884481e-05 -3.54281474e-05 -3.81367354e-05 -2.56970361e-05
      -1.68787319e-05 -2.40144936e-06 1.06044154e-05 1.82713629e-05
      2.96616945e-05 2.96616945e-05 2.75323200e-05 2.10123599e-05
      2.10123599e-05 1.73580902e-05 1.31704255e-05 1.22776955e-05 0. 0.
      1.05127174e-05 1.44772830e-05 1.44772830e-05 1.78611190e-05
      2.43810791e-05 4.53934372e-05 3.44203618e-05 7.27447423e-06
      -2.43810791e-05 -3.31157426e-05 -2.29884481e-05 -2.82329383e-05
      -8.84692417e-06 1.03103257e-05 -6.52597737e-06 -1.33664207e-05
      1.17514019e-05 8.64933463e-06 1.23036034e-05 3.57714089e-05
      3.09161551e-05 2.10123599e-05 2.10123599e-05 1.73580902e-05
      1.31704255e-05 0. 0. 0. 0. 1.09730781e-05 1.44772830e-05
      1.78611190e-05 2.43810791e-05 4.53934372e-05 3.09161551e-05
      -1.78611190e-05 -2.80353488e-05 -3.29537397e-05 -6.88297291e-07
      9.81802259e-06 1.57317445e-05 -4.85525425e-06 -1.78611190e-05
      -2.07786452e-05 -2.71636563e-05 8.64933463e-06 1.23036034e-05
      3.57714089e-05 4.53934372e-05 2.10123599e-05 1.73580902e-05
      1.73580902e-05 1.22776955e-05 0. 0. 0. 0. 1.05127174e-05
      1.44772830e-05 1.78611190e-05 4.53934372e-05 4.53934372e-05
      3.09161551e-05 -1.78611190e-05 -4.53934372e-05 3.71637452e-06
      1.19413799e-05 2.29884481e-05 1.57317445e-05 -1.09730781e-05
      -1.78611190e-05 -2.80353488e-05 -3.92837210e-05 -1.41659002e-05
      3.22230117e-05 4.53934372e-05 4.53934372e-05 2.10123599e-05
      1.73580902e-05 1.31704255e-05 0. 0. 0. 0. 0. 0. 1.09730781e-05
      3.01388136e-05 4.53934372e-05 4.53934372e-05 -8.82593395e-06
      -1.78611190e-05 -3.57714089e-05 1.44772830e-05 2.80353488e-05
      4.53934372e-05 4.53934372e-05 4.53934372e-05 1.18005755e-05
      -1.97833142e-05 -4.53934372e-05 -2.23132920e-05 1.07107535e-05
      4.53934372e-05 4.53934372e-05 3.19854371e-05 1.73580902e-05
      1.22776955e-05 0. 0. 0. 0. 0. 0. 1.05127174e-05 3.18353741e-05
      4.53934372e-05 4.53934372e-05 1.35525272e-20 -2.76477076e-05
      -2.24049909e-05 -3.84475879e-06 2.96616945e-05 2.96616945e-05
      2.96616945e-05 2.29884481e-05 2.29884481e-05 -1.57317445e-05
      -2.29884481e-05 -4.53934372e-05 2.29884481e-05 3.29537397e-05
      4.53934372e-05 3.54896401e-05 1.31704255e-05 0. 0. 0. 0. 0. 0. 0.
      1.22776955e-05 3.18353741e-05 4.53934372e-05 3.57714089e-05
      1.35525272e-20 -1.87091409e-05 -2.24049909e-05 -3.45404987e-06
      2.24049909e-05 1.35525272e-20 1.35525272e-20 1.35525272e-20
      1.57317445e-05 -2.24049909e-05 -2.29884481e-05 -2.29884481e-05
      1.57317445e-05 2.29884481e-05 4.53934372e-05 3.52192110e-05
      1.09730781e-05 0. 0. 0. 0. 0. 0. 0. 1.31704255e-05 3.15250763e-05
      4.53934372e-05 2.96616945e-05 -1.31704255e-05 -5.28061446e-06
      -3.20270192e-05 -3.45404987e-06 7.92770788e-06 9.62202830e-06
      1.35525272e-20 1.35525272e-20 -2.10123599e-05 -1.14319118e-05
      -1.57317445e-05 -2.42190745e-05 9.95447590e-06 2.29884481e-05
      4.53934372e-05 3.10315445e-05 1.44772830e-05 5.77726951e-06 0. 0.
      0. 0. 0. 1.22776955e-05 1.73580902e-05 2.10123599e-05
      4.53934372e-05 2.96616945e-05 5.04689979e-06 -5.28061446e-06
      -2.24049909e-05 -2.56131921e-06 -5.42141925e-06 1.35525272e-20
      7.25670361e-06 9.23456446e-06 -5.28061446e-06 -7.92770788e-06
      -2.81714438e-05 -1.97608961e-06 4.75866682e-06 2.29884481e-05
      4.53934372e-05 1.78611190e-05 1.44772830e-05 1.09730781e-05 0. 0.
      0. 0. 0. 1.31704255e-05 1.73580902e-05 2.10123599e-05
      2.75323200e-05 2.96616945e-05 9.23456446e-06 -2.10123599e-05
      -7.92770788e-06 -2.02578467e-05 -1.93341803e-05 -1.44772830e-05
      -1.22776955e-05 -1.73580902e-05 -1.18005755e-05 -2.24049909e-05
      -9.81802259e-06 2.39672727e-06 4.75866682e-06 2.29884481e-05
      4.53934372e-05 1.78611190e-05 1.44772830e-05 1.44772830e-05
      1.05127174e-05 0. 0. 0. 1.22776955e-05 1.73580902e-05
      1.73580902e-05 2.10123599e-05 2.75323200e-05 3.57714089e-05
      2.24049909e-05 1.39263102e-06 -1.41659002e-05 -1.66277205e-05 0.
      -2.29884481e-05 -4.53934372e-05 -2.96616945e-05 -3.20270192e-05
      -1.57317445e-05 -1.97608961e-06 -8.23909068e-06 2.25280874e-05
      2.29884481e-05 2.80353488e-05 1.78611190e-05 1.78611190e-05
      1.44772830e-05 1.09730781e-05 0. 0. 0. 8.92730611e-07
      1.73580902e-05 1.73580902e-05 2.10123599e-05 2.75323200e-05
      3.09161551e-05 2.24049909e-05 2.24049909e-05 -1.50926207e-05
      -3.09161551e-05 -1.24396993e-05 0. 0. 0. -3.45404987e-06
      -5.63035837e-06 -2.29097041e-05 1.37483062e-06 2.29884481e-05
      4.53934372e-05 2.43810791e-05 1.78611190e-05 1.78611190e-05
      1.44772830e-05 1.09730781e-05 0. 0. 0. 0. 4.18766467e-06
      2.10123599e-05 2.10123599e-05 2.75323200e-05 3.09161551e-05
      4.53934372e-05 2.24049909e-05 2.02578467e-05 -1.01742298e-05
      -3.48807225e-05 -4.53934372e-05 -2.81714438e-05 -3.81367354e-05
      -2.80353488e-05 -1.47590517e-05 1.57317445e-05 2.29884481e-05
      3.29537397e-05 2.80353488e-05 2.43810791e-05 1.78611190e-05
      1.78611190e-05 1.44772830e-05 3.50420441e-06 0. 0. 0. 0. 0.
      3.65426877e-06 7.84193344e-06 2.75323200e-05 3.09161551e-05
      3.44203618e-05 4.53934372e-05 3.81367354e-05 1.24396993e-05
      1.35525272e-20 1.35525272e-20 1.35525272e-20 1.35525272e-20
      1.35525272e-20 1.57317445e-05 2.29884481e-05 4.53934372e-05
      3.31157426e-05 2.80353488e-05 2.43810791e-05 1.78611190e-05
      6.88804039e-06 0. 0. 0. 0. 0. 0. 0. 3.65426877e-06 3.65426877e-06
      1.01742298e-05 1.43618945e-05 3.09161551e-05 4.53934372e-05
      4.53934372e-05 4.53934372e-05 4.53934372e-05 2.29884481e-05
      2.29884481e-05 2.29884481e-05 3.75752934e-05 4.53934372e-05
      4.53934372e-05 4.53934372e-05 2.80353488e-05 2.80353488e-05
      1.34080019e-05 8.43242105e-06 3.38383620e-06 0. 0. 0. 0. 0. 0. 0.
      0. 0. 6.51996106e-06 1.01742298e-05 1.35580658e-05 2.12499344e-05
      4.53934372e-05 4.53934372e-05 4.53934372e-05 4.53934372e-05
      4.53934372e-05 4.53934372e-05 4.53934372e-05 4.53934372e-05
      4.53934372e-05 3.31157426e-05 1.70622698e-05 1.35580658e-05
      9.90379704e-06 5.04858463e-06 0. 0. 0. 0. 0. 0. 0. 0. 0. 0.
      6.51996106e-06 6.51996106e-06 9.90379704e-06 9.90379704e-06
      1.86038105e-05 3.66587738e-05 4.53934372e-05 4.53934372e-05
      4.53934372e-05 4.53934372e-05 4.53934372e-05 4.53934372e-05
      3.33095886e-05 1.43618945e-05 1.01742298e-05 6.51996106e-06
      6.51996106e-06 0. 0. 0. 0. 0. 0. 0. 0. 0. 0. 0. 0. 0.
      3.38383620e-06 3.38383620e-06 6.88804039e-06 1.78611190e-05
      1.78611190e-05 2.67549785e-05 3.18353741e-05 3.18353741e-05
      2.78708085e-05 2.10123599e-05 8.73466433e-06 3.65426877e-06
      3.65426877e-06 0. 0. 0. 0. 0. 0. 0. 0. 0. 0. 0. 0. 0. 0. 0. 0. 0.
      3.50420441e-06 3.96456517e-06 1.44772830e-05 1.09730781e-05
      1.09730781e-05 1.31704255e-05 1.31704255e-05 5.08039557e-06
      4.18766467e-06 0. 0. 0. 0. 0. 0. 0. 0. 0. 0. 0. 0. 0. 0. 0. 0. 0.
      0. 0. 0. 0. 1.05127174e-05 0. 0. 0. 0. 0. 0. 0. 0. 0. 0. 0. 0. 0.
      0. 0. 0.</_>
    <_>
      0. 0. 0. 0. 0. 0. 0. 0. 0. 9.29242503e-07 2.16418414e-07
      1.60718373e-05 1.58554194e-05 1.51301074e-05 1.28466118e-05
      1.77875481e-05 4.94093638e-06 0. 0. 0. 0. 0. 0. 0. 0. 0. 0. 0. 0.
      0. 0. 0. 0. 0. 0. 4.34076674e-06 3.39660482e-06 4.54226574e-06
      5.26757685e-06 1.70010790e-05 1.70010790e-05 3.38593854e-05
      3.36429657e-05 1.77875481e-05 4.94093638e-06 5.60853778e-06
      5.60853778e-06 5.60853778e-06 0. 0. 0. 0. 0. 0. 0. 0. 0. 0. 0. 0.
      0. 0. 2.14410875e-06 5.54071357e-06 5.54071357e-06 6.68637449e-06
      2.25417934e-05 4.03293416e-05 4.65618141e-05 5.21703514e-05
      5.21703514e-05 4.66296406e-05 4.54839792e-05 1.67819471e-05
      1.18410117e-05 1.18410117e-05 6.23247388e-06 6.23247388e-06 0. 0.
      0. 0. 0. 0. 0. 0. 0. 0. 0. 6.23247388e-06 8.37658263e-06
      1.17731870e-05 1.83109678e-05 3.70402449e-05 5.21703514e-05
      5.21703514e-05 5.21703514e-05 3.71272909e-05 5.21703514e-05
      5.21703514e-05 5.21703514e-05 5.21703514e-05 3.43828033e-05
      1.73817243e-05 8.37658263e-06 8.37658263e-06 1.19994672e-06 0. 0.
      0. 0. 0. 0. 0. 0. 5.60853778e-06 5.60853778e-06 1.18410117e-05
      1.39851199e-05 3.51692725e-05 3.63149338e-05 4.13671951e-05
      4.11651527e-05 4.25635953e-05 1.87911464e-05 1.96145866e-05
      1.98166308e-05 1.86700981e-05 4.28267485e-05 4.55594600e-05
      3.93237424e-05 3.43828033e-05 3.43828033e-05 1.27024296e-05
      5.54071357e-06 4.50975585e-06 0. 0. 0. 0. 0. 0. 0. 5.60853778e-06
      5.60853778e-06 1.67819471e-05 3.17726699e-05 3.60985141e-05
      4.27228115e-05 3.91666581e-05 3.11857184e-05 1.60936260e-20
      1.60936260e-20 1.60936260e-20 1.60936260e-20 1.60936260e-20
      1.34099437e-05 3.25557667e-05 4.07970801e-05 3.18163547e-05
      3.43828033e-05 2.87742678e-05 6.68637449e-06 5.43899841e-06 0. 0.
      0. 0. 0. 0. 0. 1.05494737e-05 2.33960855e-05 2.96285598e-05
      3.04841105e-05 2.75035054e-05 3.33792050e-05 1.64131125e-05
      1.50430615e-05 -7.18607907e-06 -1.36011859e-05 -2.23472980e-05
      -9.83048903e-06 -2.34651689e-05 -1.32043788e-05 1.61426560e-05
      1.61426560e-05 2.49499972e-05 2.35796488e-05 2.87742678e-05
      2.25417934e-05 2.13418461e-05 1.14566092e-06 1.14566092e-06 0. 0.
      0. 4.94093638e-06 1.77875481e-05 2.33960855e-05 2.33960855e-05
      3.06595175e-05 2.58256696e-05 2.72162688e-05 1.99692622e-05
      1.28030661e-05 -8.75293972e-06 -1.28300405e-06 -1.50430615e-05 0.
      -1.34099437e-05 1.64489279e-06 -3.04027049e-06 3.04840478e-06
      1.61426560e-05 2.27535475e-05 7.16653676e-06 2.74042177e-05
      2.25417934e-05 2.03976851e-05 1.70010790e-05 1.60718373e-05 0. 0.
      0. 1.77875481e-05 1.77875481e-05 1.77875481e-05 2.33960855e-05
      1.45168624e-05 1.33449676e-05 2.72162688e-05 3.18406910e-06
      9.59452791e-06 3.89863089e-06 -2.72162688e-05 -2.46498184e-05
      -1.99692622e-05 -1.62110664e-05 -1.61426560e-05 -3.04027049e-06
      1.18519447e-05 2.03993968e-05 2.29555935e-05 2.49540844e-05
      1.23611553e-05 7.49873152e-06 2.03976851e-05 1.70010790e-05
      1.58554194e-05 1.51301074e-05 0. 0. 1.28466118e-05 1.77875481e-05
      1.77875481e-05 9.98614269e-06 1.46858511e-05 3.13425335e-05
      2.32007496e-05 1.27158319e-05 7.83098699e-07 -4.48447827e-06
      -3.59592850e-05 -2.31421709e-05 -1.77167294e-05 -3.01316345e-06
      -2.75035054e-05 -3.89646157e-05 1.18519447e-05 1.10449309e-05
      2.52953596e-05 2.49540844e-05 1.79696926e-05 7.49873152e-06
      2.03976851e-05 1.70010790e-05 1.58554194e-05 0. 0. 0. 0.
      1.77875481e-05 1.77875481e-05 9.98614269e-06 1.56300139e-05
      3.60276972e-05 2.50392004e-05 1.72301261e-05 -7.95300457e-06
      -2.49540844e-05 -4.12444888e-06 -1.44853693e-05 1.61426560e-05
      -8.44394435e-06 -1.20228142e-05 -2.41640719e-05 1.72911291e-06
      1.57300947e-05 2.29960660e-05 3.22010892e-05 3.57572426e-05
      7.49873152e-06 1.70010790e-05 1.60718373e-05 1.51301074e-05 0. 0.
      0. 0. 1.28466118e-05 1.77875481e-05 2.33960855e-05 3.87604086e-05
      3.60276972e-05 1.35549863e-05 7.94644893e-06 -2.08278179e-05
      1.64489279e-06 -2.13418461e-05 1.60936260e-20 2.27535475e-05
      4.55974941e-06 -1.12228790e-05 -1.52000111e-05 -1.96145866e-05
      1.04263036e-05 9.09866594e-06 3.57572426e-05 3.59592850e-05
      2.25417934e-05 1.70010790e-05 1.58554194e-05 0. 0. 0. 0. 0. 0.
      1.77875481e-05 3.85261919e-05 5.21703514e-05 3.60276972e-05
      1.82401491e-05 1.26316118e-05 -1.34099437e-05 -2.94495567e-05
      -1.70010790e-05 1.60936260e-20 2.75205348e-05 3.60276972e-05
      -3.42682347e-06 -2.12718733e-05 -2.94168058e-05 -1.41003447e-05
      2.06271343e-05 3.71272909e-05 3.71272909e-05 3.92983857e-05
      1.70010790e-05 1.51301074e-05 0. 0. 0. 0. 0. 0. 1.28466118e-05
      3.38593854e-05 5.21703514e-05 3.87604086e-05 3.87604086e-05
      1.85273857e-05 -1.62110664e-05 -3.93237424e-05 1.60936260e-20
      1.72096879e-05 5.21703514e-05 1.50430615e-05 1.60936260e-20
      -3.60276972e-05 -2.46498184e-05 -1.64131125e-05 3.59592850e-05
      5.21703514e-05 5.21703514e-05 3.91293943e-05 1.58554194e-05 0. 0.
      0. 0. 0. 0. 0. 1.51301074e-05 3.47886271e-05 5.21703514e-05
      5.21703514e-05 5.21703514e-05 2.33866331e-06 -2.72162688e-05
      -3.70402449e-05 1.62110664e-05 3.60276972e-05 3.22010892e-05
      1.60936260e-20 1.60936260e-20 -2.72162688e-05 -1.62110664e-05 0.
      5.21703514e-05 5.21703514e-05 5.21703514e-05 4.03971644e-05
      1.77875481e-05 0. 0. 0. 0. 0. 0. 0. 1.58554194e-05 3.32442978e-05
      5.21703514e-05 5.21703514e-05 3.63149338e-05 1.46174398e-05
      -2.94168058e-05 -2.01038674e-05 2.18171431e-06 2.23472980e-05
      1.61426560e-05 1.60936260e-20 -2.15108357e-05 1.60698182e-05 0.
      4.54226574e-06 3.93237424e-05 5.21703514e-05 5.21703514e-05
      3.92515030e-05 1.77875481e-05 1.28466118e-05 0. 0. 0. 0. 0.
      1.58554194e-05 1.70010790e-05 2.13418461e-05 5.21703514e-05
      5.21703514e-05 2.01262119e-05 1.42464060e-05 -1.43737434e-05
      -6.49187859e-06 -1.03923921e-05 1.13778797e-05 2.08278179e-05
      3.55647842e-07 8.80074094e-06 4.37760445e-06 0. 2.15108357e-05
      3.43828033e-05 5.21703514e-05 5.21703514e-05 2.33960855e-05
      1.77875481e-05 1.77875481e-05 0. 0. 0. 0. 0. 1.58554194e-05
      1.70010790e-05 2.15108357e-05 2.87742678e-05 5.21703514e-05
      2.01038674e-05 1.06902553e-05 4.58180966e-06 -3.73903604e-05
      -3.46569032e-05 -9.77269519e-06 1.60556101e-05 2.96818280e-06
      6.42537998e-07 -1.34099437e-05 1.58554194e-05 2.87742678e-05
      3.43828033e-05 5.21703514e-05 5.21703514e-05 2.33960855e-05
      1.77875481e-05 1.77875481e-05 1.28466118e-05 0. 0. 0.
      1.58554194e-05 1.60718373e-05 1.70010790e-05 2.15108357e-05
      2.87742678e-05 3.71272909e-05 3.57572426e-05 9.65929758e-06
      -4.65066933e-06 -1.94228905e-05 -4.27228115e-05 -2.79444339e-05
      -1.60584350e-05 -1.07475653e-05 -1.61426560e-05 -1.34099437e-05
      2.15108357e-05 2.87742678e-05 4.72294159e-05 5.21703514e-05
      3.51692725e-05 2.33960855e-05 2.33960855e-05 1.77875481e-05
      1.77875481e-05 0. 0. 0. 7.25311168e-07 1.70010790e-05
      1.70010790e-05 2.15108357e-05 2.87742678e-05 3.43828033e-05
      3.57572426e-05 3.22010892e-05 -4.61675882e-06 -1.46839993e-05
      -1.56737660e-05 -2.69458124e-05 -2.47832158e-05 -1.15441408e-05
      -5.69771100e-06 8.58424471e-07 2.01711682e-05 3.04919977e-05
      5.21703514e-05 5.21703514e-05 3.17726699e-05 2.33960855e-05
      2.33960855e-05 1.77875481e-05 1.77875481e-05 0. 0. 0. 0.
      1.14566092e-06 2.03976851e-05 2.25417934e-05 2.87742678e-05
      3.43828033e-05 5.21703514e-05 2.75205348e-05 2.41575090e-05
      1.02545782e-05 -8.13802399e-06 -3.38315112e-05 -2.75159273e-05
      -1.11820545e-05 -3.82673852e-06 5.19919149e-06 3.87604086e-05
      5.21703514e-05 5.21703514e-05 3.60985141e-05 3.17726699e-05
      2.33960855e-05 2.33960855e-05 1.77875481e-05 1.71773002e-06 0. 0.
      0. 0. 0. 4.32584739e-06 6.68637449e-06 2.87742678e-05
      3.43828033e-05 3.43828033e-05 5.21703514e-05 4.05706196e-05
      3.70388843e-05 3.25557667e-05 2.98230552e-05 2.46498184e-05
      2.72162688e-05 3.13425335e-05 3.60276972e-05 3.87604086e-05
      5.21703514e-05 3.63149338e-05 3.51692725e-05 3.08285053e-05
      2.33960855e-05 5.60853778e-06 0. 0. 0. 0. 0. 0. 0. 3.39660482e-06
      5.54071357e-06 1.17731870e-05 1.29188484e-05 3.43828033e-05
      5.21703514e-05 5.21703514e-05 5.21703514e-05 4.33589230e-05
      4.14227870e-05 2.94168058e-05 3.13425335e-05 3.60276972e-05
      5.21703514e-05 5.21703514e-05 5.21703514e-05 3.60985141e-05
      3.51692725e-05 1.28719694e-05 1.18410117e-05 5.60853778e-06 0. 0.
      0. 0. 0. 0. 0. 0. 2.14410875e-06 8.37658263e-06 1.17731870e-05
      1.73817243e-05 1.85273857e-05 5.21703514e-05 5.21703514e-05
      5.21703514e-05 5.21703514e-05 5.21703514e-05 5.21703514e-05
      5.21703514e-05 5.21703514e-05 5.21703514e-05 3.70402449e-05
      1.73817243e-05 1.73817243e-05 1.28719694e-05 6.23247388e-06 0. 0.
      0. 0. 0. 0. 0. 0. 0. 0. 6.23247388e-06 6.23247388e-06
      1.18410117e-05 1.28719694e-05 1.78129048e-05 4.59586154e-05
      5.21703514e-05 5.21703514e-05 5.21703514e-05 5.21703514e-05
      5.21703514e-05 5.21703514e-05 4.16208786e-05 1.29188484e-05
      1.17731870e-05 8.37658263e-06 7.26343160e-06 0. 0. 0. 0. 0. 0. 0.
      0. 0. 0. 0. 0. 0. 5.60853778e-06 5.60853778e-06 5.60853778e-06
      2.33960855e-05 2.33960855e-05 3.36429657e-05 3.38593854e-05
      3.47886271e-05 2.98476916e-05 2.03976851e-05 5.48642765e-06
      5.43899841e-06 4.50975585e-06 1.11315103e-06 0. 0. 0. 0. 0. 0. 0.
      0. 0. 0. 0. 0. 0. 0. 0. 0. 0. 4.94093638e-06 1.77875481e-05
      1.77875481e-05 1.60698182e-05 1.58554194e-05 1.58554194e-05
      1.87097203e-06 1.14566092e-06 0. 0. 0. 0. 0. 0. 0. 0. 0. 0. 0. 0.
      0. 0. 0. 0. 0. 0. 0. 0. 0. 1.28466118e-05 0. 0. 0. 0. 0. 0. 0. 0.
      0. 0. 0. 0. 0. 0. 0. 0.</_>
    <_>
      0. 0. 0. 0. 0. 0. 0. 0. 0. 1.10600092e-06 2.39324277e-06
      1.59847841e-05 1.35915407e-05 1.31622537e-05 8.49002208e-06
      1.36207991e-05 5.71989676e-06 0. 0. 0. 0. 0. 0. 0. 0. 0. 0. 0. 0.
      0. 0. 0. 0. 0. 0. 4.08467940e-06 3.37410052e-06 6.87334432e-06
      7.30263082e-06 1.70907842e-05 1.70907842e-05 2.96055823e-05
      3.05280519e-05 1.69365103e-05 8.44648912e-06 7.76031720e-06
      4.44460511e-06 4.44460511e-06 0. 0. 0. 0. 0. 0. 0. 0. 0. 0. 0. 0.
      0. 4.06737342e-07 1.87206763e-06 5.24616826e-06 5.24616826e-06
      8.74541183e-06 2.23369516e-05 3.59577498e-05 4.44011057e-05
      4.89371778e-05 4.89371778e-05 4.40977492e-05 4.01917678e-05
      1.53836136e-05 9.66371590e-06 9.66371590e-06 5.21911079e-06
      5.12764245e-06 0. 0. 0. 0. 0. 0. 0. 0. 0. 0. 0. 5.62584819e-06
      7.09117830e-06 1.04652790e-05 1.60158852e-05 3.57749268e-05
      4.89371778e-05 4.89371778e-05 4.89371778e-05 4.89371778e-05
      4.89371778e-05 4.89371778e-05 4.89371778e-05 4.89371778e-05
      3.53163814e-05 1.49098842e-05 7.09117830e-06 6.99970997e-06
      4.06737342e-07 0. 0. 0. 0. 0. 0. 0. 0. 4.44460511e-06
      4.53607345e-06 1.00704538e-05 1.15357834e-05 3.18463935e-05
      3.53456380e-05 4.89371778e-05 4.89371778e-05 4.89371778e-05
      4.89371778e-05 4.89371778e-05 4.89371778e-05 4.89371778e-05
      4.89371778e-05 4.89371778e-05 3.77205652e-05 3.20006693e-05
      3.20006693e-05 1.14798113e-05 5.24616826e-06 4.83943086e-06 0. 0.
      0. 0. 0. 0. 0. 4.44460511e-06 4.53607345e-06 1.57903505e-05
      2.84722937e-05 3.29523973e-05 4.89371778e-05 4.89371778e-05
      4.77822614e-05 1.08871263e-05 -2.32934060e-21 -2.32934060e-21
      1.05641093e-05 2.05967262e-05 3.03604738e-05 4.89371778e-05
      4.89371778e-05 3.20006693e-05 3.20006693e-05 2.74645954e-05
      8.74541183e-06 5.94543189e-06 7.54751625e-07 0. 0. 0. 0. 0.
      3.31571164e-06 1.01645019e-05 2.14725842e-05 2.70069650e-05
      3.18463935e-05 3.53456380e-05 3.77496435e-05 1.85767058e-05
      1.60631935e-05 -9.71052759e-06 -1.84091277e-05 -4.89371778e-05
      -2.75560633e-05 -2.67815576e-05 7.43447299e-06 2.05967262e-05
      3.03604738e-05 3.77205652e-05 3.20006693e-05 2.75560633e-05
      2.19302146e-05 2.19302146e-05 3.49924358e-06 3.49924358e-06 0. 0.
      0. 5.71989676e-06 1.69365103e-05 2.13811163e-05 2.14725842e-05
      2.70069650e-05 3.18463935e-05 3.01142991e-05 1.85767058e-05
      1.07249198e-05 -2.02045176e-05 -1.71334777e-05 -2.14512365e-05
      -1.05641093e-05 -2.05967262e-05 -8.13084444e-06 -2.85985379e-06
      -1.33348817e-06 2.17516426e-05 3.03604738e-05 3.20006693e-05
      2.75560633e-05 2.19302146e-05 2.04648841e-05 1.70907842e-05
      1.59847841e-05 0. 0. 0. 1.36207991e-05 1.69365103e-05
      1.69365103e-05 2.14725842e-05 2.70069650e-05 3.00236334e-05
      2.71855351e-05 -2.80441100e-06 -3.97262795e-07 -2.59192211e-06
      -1.75109217e-05 -9.45449665e-06 0. -1.05641093e-05 -2.05967262e-05
      -4.81513234e-06 4.60498268e-06 1.31842143e-07 3.03604738e-05
      3.14262579e-05 2.75560633e-05 2.19302146e-05 2.04648841e-05
      1.70907842e-05 1.35915407e-05 1.31622537e-05 0. 0. 1.12166144e-05
      1.69365103e-05 1.69365103e-05 2.14725842e-05 2.70069650e-05
      2.83404515e-05 1.35647369e-05 -2.89587933e-06 4.16647526e-06
      -5.41445161e-06 -4.37103845e-05 -1.98904727e-05 -2.23571842e-05
      -8.75857666e-07 -1.84780365e-05 -3.81076497e-05 1.67621965e-06
      1.47297051e-05 1.43756906e-05 3.14262579e-05 3.20006693e-05
      2.19302146e-05 2.04648841e-05 1.70907842e-05 1.35915407e-05 0. 0.
      0. 0. 1.36207991e-05 1.69365103e-05 2.14725842e-05 2.84722937e-05
      2.83404515e-05 1.02490249e-05 1.77008478e-05 -1.00947518e-05
      -3.91734320e-05 -1.97750160e-05 2.47165281e-06 -2.32934060e-21
      3.66021595e-06 -1.32138130e-05 -2.32375642e-05 -6.17556543e-06
      1.47297051e-05 1.32696896e-05 3.03604738e-05 4.89371778e-05
      2.19302146e-05 1.70907842e-05 1.59847841e-05 1.31622537e-05 0. 0.
      0. 0. 1.12166144e-05 1.69365103e-05 2.13811163e-05 4.89371778e-05
      3.54443073e-05 1.14039412e-05 -9.84269263e-06 -3.89045599e-05
      -2.55526320e-05 -1.22556012e-05 1.85767058e-05 1.08871263e-05
      6.97592759e-06 -1.17088375e-05 -2.21717819e-05 -3.03604738e-05
      1.23386189e-06 1.67689341e-05 3.14262579e-05 4.89371778e-05
      2.19302146e-05 1.70907842e-05 1.35915407e-05 0. 0. 0. 0. 0. 0.
      1.36207991e-05 3.45433691e-05 4.89371778e-05 3.83730694e-05
      1.36974165e-06 -2.13811163e-05 -2.83404515e-05 -2.08131351e-05
      -7.32703666e-06 2.71855351e-05 4.77822614e-05 3.14262579e-05
      1.80100978e-05 -1.67689341e-05 -3.55872689e-05 -3.87726759e-05
      6.63411129e-06 3.80500533e-05 4.89371778e-05 3.55510128e-05
      1.70907842e-05 1.31622537e-05 0. 0. 0. 0. 0. 0. 1.12166144e-05
      3.29212926e-05 4.89371778e-05 4.89371778e-05 9.76374758e-06
      -3.05280519e-05 -2.23098759e-05 -1.27372505e-06 4.89371778e-05
      4.89371778e-05 4.89371778e-05 4.89371778e-05 4.89371778e-05
      -1.49905409e-05 -4.89371778e-05 -4.89371778e-05 1.08295299e-05
      3.83730694e-05 4.89371778e-05 3.88667249e-05 1.35915407e-05 0. 0.
      0. 0. 0. 0. 0. 1.31622537e-05 3.40272964e-05 4.89371778e-05
      3.80500533e-05 1.11875343e-05 -1.98244561e-05 -3.03604738e-05
      -2.61003115e-05 3.03604738e-05 2.17516426e-05 1.05641093e-05
      1.75109217e-05 2.83404515e-05 -2.91408141e-05 -2.83404515e-05
      -3.83730694e-05 1.62984088e-05 2.83404515e-05 4.89371778e-05
      3.84718987e-05 1.36207991e-05 0. 0. 0. 0. 0. 0. 0. 1.35915407e-05
      3.16814985e-05 4.89371778e-05 3.14262579e-05 8.16010288e-06
      -5.86702163e-06 -3.26387708e-05 -2.55818923e-05 -6.90389334e-06
      1.05641093e-05 -2.32934060e-21 -2.32934060e-21 -3.35350978e-06
      -2.44868497e-05 -2.71855351e-05 -2.14671090e-05 1.00866828e-05
      2.83404515e-05 3.83730694e-05 3.50641239e-05 1.69365103e-05
      8.49002208e-06 0. 0. 0. 0. 0. 1.35915407e-05 1.70907842e-05
      2.19302146e-05 3.80500533e-05 3.03604738e-05 4.66085930e-06
      6.14481678e-06 -3.92625661e-05 -1.84780365e-05 -7.84389329e-07
      -2.32934060e-21 -2.32934060e-21 -1.35915407e-05 -4.41929251e-06
      -1.57022587e-05 -2.91408141e-05 -6.31876901e-06 4.95590575e-06
      2.83404515e-05 3.83730694e-05 2.14725842e-05 1.69365103e-05
      1.36207991e-05 0. 0. 0. 0. 0. 1.35915407e-05 1.70907842e-05
      2.19302146e-05 2.75560633e-05 3.03604738e-05 8.16010288e-06
      -1.52707908e-05 -4.81513234e-06 -2.11824499e-05 -2.35010211e-05
      -1.69365103e-05 -1.31622537e-05 -1.70907842e-05 -8.88788963e-06
      -3.26387708e-05 -4.98516465e-06 8.57863961e-06 4.95590575e-06
      2.71855351e-05 3.83730694e-05 2.14725842e-05 1.69365103e-05
      1.69365103e-05 1.12166144e-05 0. 0. 0. 1.35915407e-05
      1.59847841e-05 1.70907842e-05 2.19302146e-05 2.75560633e-05
      3.03604738e-05 2.17516426e-05 -1.33348817e-06 -1.12576536e-05
      -1.21067051e-05 -9.76374758e-06 -3.83730694e-05 -4.89371778e-05
      -3.14262579e-05 -2.17516426e-05 -1.33499116e-05 -5.25532096e-06
      -1.05854579e-05 1.61725202e-05 2.83404515e-05 3.18463935e-05
      2.14725842e-05 2.13811163e-05 1.69365103e-05 1.36207991e-05 0. 0.
      0. 4.29286700e-07 1.70907842e-05 1.78455357e-05 2.19302146e-05
      2.74645954e-05 3.20006693e-05 2.17516426e-05 2.05967262e-05
      -1.69919531e-05 -2.83829668e-05 -1.05641093e-05 0. 0. 0.
      -1.87657776e-07 -1.48592119e-06 -2.66002262e-05 -5.54481915e-07
      2.71855351e-05 3.89045599e-05 2.84722937e-05 2.14725842e-05
      2.13811163e-05 1.69365103e-05 1.36207991e-05 0. 0. 0. 0.
      3.49924358e-06 2.04648841e-05 2.19302146e-05 2.74645954e-05
      3.20006693e-05 4.89371778e-05 2.05967262e-05 1.34928723e-05
      -1.03738103e-05 -3.77205652e-05 -4.89371778e-05 -3.02957305e-05
      -4.03283484e-05 -3.18463935e-05 -2.69154953e-05 1.08871263e-05
      1.85767058e-05 3.83730694e-05 3.29523973e-05 2.84722937e-05
      2.14725842e-05 2.13811163e-05 1.69365103e-05 3.31571164e-06 0. 0.
      0. 0. 0. 4.48010132e-06 8.33867489e-06 2.74645954e-05
      3.20006693e-05 3.53163814e-05 4.89371778e-05 3.91734320e-05
      1.05641093e-05 -2.32934060e-21 -2.32934060e-21 -2.32934060e-21
      -2.32934060e-21 -2.32934060e-21 1.08871263e-05 1.85767058e-05
      4.89371778e-05 3.53456380e-05 3.18463935e-05 2.70069650e-05
      2.14725842e-05 7.76031720e-06 0. 0. 0. 0. 0. 0. 0. 3.37410052e-06
      4.83943086e-06 1.03738103e-05 1.39645226e-05 3.20006693e-05
      4.89371778e-05 4.89371778e-05 4.89371778e-05 2.83404515e-05
      2.71855351e-05 1.52326265e-05 2.31643862e-05 4.60084157e-05
      4.89371778e-05 4.89371778e-05 4.89371778e-05 3.29523973e-05
      3.18463935e-05 1.33861649e-05 9.66371590e-06 4.53607345e-06 0. 0.
      0. 0. 0. 0. 0. 0. 1.46533023e-06 6.99970997e-06 1.04652790e-05
      1.49098842e-05 2.17248398e-05 4.89371778e-05 4.89371778e-05
      4.89371778e-05 4.89371778e-05 4.89371778e-05 4.89371778e-05
      4.89371778e-05 4.89371778e-05 4.89371778e-05 3.57749268e-05
      1.82255953e-05 1.41551327e-05 1.00704538e-05 5.21911079e-06
      9.14683511e-08 0. 0. 0. 0. 0. 0. 0. 0. 0. 5.53437985e-06
      5.62584819e-06 1.00704538e-05 1.00704538e-05 1.85169429e-05
      4.01692196e-05 4.89371778e-05 4.89371778e-05 4.89371778e-05
      4.89371778e-05 4.89371778e-05 4.89371778e-05 3.60460836e-05
      1.38730547e-05 1.03738103e-05 6.99970997e-06 5.53437985e-06 0. 0.
      0. 0. 0. 0. 0. 0. 0. 0. 0. 0. 9.14683511e-08 4.53607345e-06
      4.53607345e-06 7.85178509e-06 2.13811163e-05 2.13811163e-05
      3.05280519e-05 3.29212926e-05 3.40272964e-05 2.90621501e-05
      2.04648841e-05 8.33867489e-06 5.94543189e-06 4.83943086e-06
      1.46533023e-06 0. 0. 0. 0. 0. 0. 0. 0. 0. 0. 0. 0. 0. 0. 0. 0.
      3.31571164e-06 5.71989676e-06 1.69365103e-05 1.36207991e-05
      1.36207991e-05 1.35915407e-05 1.35915407e-05 3.92853053e-06
      3.49924358e-06 0. 0. 0. 0. 0. 0. 0. 0. 0. 0. 0. 0. 0. 0. 0. 0. 0.
      0. 0. 0. 0. 1.12166144e-05 0. 0. 0. 0. 0. 0. 0. 0. 0. 0. 0. 0. 0.
      0. 0. 0.</_>
    <_>
      0. 0. 0. 0. 0. 0. 0. 0. 0. 8.61774026e-07 0. 1.41539585e-05
      1.41539585e-05 1.10067776e-05 8.99246788e-06 1.46687016e-05
      4.68971484e-06 0. 0. 0. 0. 0. 0. 0. 0. 0. 0. 0. 0. 0. 0. 0. 0. 0.
      0. 1.15941236e-06 4.43073031e-06 5.29250428e-06 8.43968519e-06
      1.50157330e-05 1.50157330e-05 2.88226602e-05 2.99627209e-05
      1.58087623e-05 6.81629535e-06 4.04885714e-06 4.04885714e-06
      4.04885714e-06 0. 0. 0. 0. 0. 0. 0. 0. 0. 0. 0. 0. 0. 0.
      4.56896373e-07 4.88762680e-06 4.88762680e-06 5.74940077e-06
      1.99033602e-05 3.57121207e-05 4.13317612e-05 4.54896181e-05
      4.54896181e-05 4.06019935e-05 3.97402182e-05 1.44672122e-05
      9.77749733e-06 9.77749733e-06 5.72864019e-06 5.61963907e-06 0. 0.
      0. 0. 0. 0. 0. 0. 0. 0. 0. 5.72864019e-06 6.18553622e-06
      1.06162670e-05 1.55268972e-05 3.44828404e-05 4.54896181e-05
      4.54896181e-05 4.54896181e-05 4.54896181e-05 4.54896181e-05
      4.54896181e-05 4.54896181e-05 4.54896181e-05 2.96808557e-05
      1.46651237e-05 6.18553622e-06 6.07653556e-06 4.56896373e-07 0. 0.
      0. 0. 0. 0. 0. 0. 4.04885714e-06 4.15785780e-06 9.77749733e-06
      1.02343938e-05 3.04738860e-05 3.13356613e-05 4.54896181e-05
      4.54896181e-05 4.54896181e-05 4.54896181e-05 4.54896181e-05
      4.54896181e-05 4.54896181e-05 4.54896181e-05 4.54896181e-05
      3.64971529e-05 2.96808557e-05 2.96808557e-05 1.13690403e-05
      4.88762680e-06 4.88762680e-06 0. 0. 0. 0. 0. 0. 0. 4.04885714e-06
      4.15785780e-06 1.44672122e-05 2.60431570e-05 3.13356613e-05
      4.54896181e-05 4.54896181e-05 3.22132837e-05 1.01834630e-05
      -2.96461532e-21 -2.96461532e-21 1.01834630e-05 1.36496474e-05
      2.16828903e-05 4.54896181e-05 4.54896181e-05 2.96808557e-05
      2.96808557e-05 2.55229988e-05 8.89658168e-06 5.74940077e-06
      3.27131784e-06 0. 0. 0. 0. 0. 0. 8.73857243e-06 1.99666210e-05
      2.55862597e-05 3.04738860e-05 3.13356613e-05 3.56287819e-05
      1.79153994e-05 1.43629622e-05 -7.34494870e-06 -1.86740781e-05
      -4.54896181e-05 -2.56320000e-05 -2.39522160e-05 8.15274177e-07
      1.36496474e-05 2.16828903e-05 3.43705724e-05 2.96808557e-05
      2.56320000e-05 1.99033602e-05 1.94464628e-05 4.00895487e-06
      8.61774026e-07 0. 0. 0. 4.68971484e-06 1.58087623e-05
      1.98576199e-05 1.99666210e-05 2.55862597e-05 3.04738860e-05
      2.76992305e-05 1.85636363e-05 1.02051044e-05 -2.72025682e-05
      -2.16328226e-05 -2.80126096e-05 -1.01834630e-05 -1.36496474e-05
      -5.87412751e-06 -1.17654572e-05 -8.08130790e-06 1.94289787e-05
      2.69259835e-05 2.96808557e-05 2.56320000e-05 1.99033602e-05
      1.94464628e-05 1.50157330e-05 1.41539585e-05 0. 0. 0.
      1.58087623e-05 1.58087623e-05 1.58087623e-05 1.99666210e-05
      2.55862597e-05 1.95136090e-05 2.38067296e-05 -1.29398416e-06
      -1.49673144e-06 -4.40967688e-06 -1.43629622e-05 0. -6.48236096e-07
      0. -1.23331856e-05 -3.62021592e-06 -7.60759895e-06 -5.79681591e-06
      2.16828903e-05 2.75742204e-05 2.56320000e-05 1.99033602e-05
      1.94464628e-05 1.50157330e-05 1.41539585e-05 1.10067776e-05 0. 0.
      1.11190475e-05 1.58087623e-05 1.58087623e-05 1.99666210e-05
      2.60431570e-05 3.18399725e-05 9.13802796e-06 -2.05122114e-06
      -4.36026585e-06 -6.90862180e-06 -2.69259835e-05 -2.08922629e-05
      -2.99627209e-05 -8.14456871e-06 -1.19066817e-05 -3.22132837e-05
      -1.71626982e-06 8.19550314e-06 7.52893175e-06 2.69259835e-05
      2.96808557e-05 1.99033602e-05 1.94464628e-05 1.50157330e-05
      1.41539585e-05 0. 0. 0. 0. 1.58087623e-05 1.58087623e-05
      1.99666210e-05 2.60431570e-05 3.18399725e-05 7.99796635e-06
      -6.31697321e-06 -8.79099571e-06 -3.60458544e-05 -7.60759895e-06
      -1.41539585e-05 -2.96461532e-21 -1.58087623e-05 -6.31697321e-06
      -8.79099571e-06 -2.37895274e-05 -1.98795988e-06 4.41324573e-06
      2.69259835e-05 3.11266558e-05 1.99033602e-05 1.50157330e-05
      1.41539585e-05 1.10067776e-05 0. 0. 0. 0. 1.11190475e-05
      1.58087623e-05 1.98576199e-05 3.53061587e-05 3.18399725e-05
      7.99796635e-06 -6.31697321e-06 -3.74563751e-05 -5.87412751e-06
      -1.53106350e-06 1.36496474e-05 8.03324292e-06 9.13802796e-06
      8.04598858e-06 -8.79099571e-06 -2.80126096e-05 -7.60759895e-06
      -5.04311402e-07 2.69259835e-05 3.11266558e-05 1.99033602e-05
      1.50157330e-05 1.41539585e-05 0. 0. 0. 0. 0. 0. 1.58087623e-05
      3.08643976e-05 4.54896181e-05 3.18399725e-05 7.99796635e-06
      -7.52443430e-06 -2.87470975e-05 -2.02370902e-05 3.54790291e-06
      -2.96461532e-21 -2.96461532e-21 -2.96461532e-21 -6.31697321e-06
      -7.55685778e-06 -2.16828903e-05 -1.88356480e-05 2.64286950e-06
      2.69259835e-05 4.54896181e-05 3.57121207e-05 1.50157330e-05
      1.10067776e-05 0. 0. 0. 0. 0. 0. 8.99246788e-06 2.99627209e-05
      4.54896181e-05 3.53061587e-05 1.85636363e-05 -1.55997586e-05
      -2.38067296e-05 -2.25725798e-05 2.38067296e-05 1.85636363e-05
      1.43629622e-05 1.01834630e-05 2.16828903e-05 -1.79153994e-05
      -2.69259835e-05 -2.75742204e-05 2.16828903e-05 2.75742204e-05
      4.54896181e-05 3.52552270e-05 1.41539585e-05 0. 0. 0. 0. 0. 0. 0.
      1.10067776e-05 3.08244962e-05 4.54896181e-05 4.54896181e-05
      2.38067296e-05 -1.29090959e-05 -3.18399725e-05 -1.27999510e-05
      2.69259835e-05 4.54896181e-05 4.54896181e-05 4.54896181e-05
      4.54896181e-05 0. -3.11266558e-05 -4.54896181e-05 2.16828903e-05
      3.11266558e-05 4.54896181e-05 3.48733520e-05 1.58087623e-05 0. 0.
      0. 0. 0. 0. 0. 1.41539585e-05 2.84389298e-05 4.54896181e-05
      4.54896181e-05 4.63951301e-06 -1.00026964e-05 -4.54896181e-05
      -2.08331949e-05 -2.15911541e-06 2.16828903e-05 4.54896181e-05
      4.54896181e-05 2.55862597e-05 8.21411595e-06 -4.54896181e-05
      -3.70499329e-05 1.85817516e-05 4.54896181e-05 4.54896181e-05
      3.41205814e-05 1.58087623e-05 8.99246788e-06 0. 0. 0. 0. 0.
      1.10067776e-05 1.50157330e-05 1.94464628e-05 4.54896181e-05
      3.11266558e-05 1.25584866e-05 -5.97878716e-06 -3.95982897e-05
      -3.13356613e-05 -1.98576199e-05 1.43629622e-05 2.38067296e-05
      1.76860140e-05 7.67086021e-06 -1.60312084e-05 -4.54896181e-05
      -2.02341653e-05 2.96808557e-05 4.54896181e-05 4.54896181e-05
      1.99666210e-05 1.58087623e-05 1.46687016e-05 0. 0. 0. 0. 0.
      1.41539585e-05 1.50157330e-05 1.99033602e-05 2.56320000e-05
      3.11266558e-05 1.65674428e-05 -3.16083856e-06 -7.28465102e-06
      -2.53473263e-05 -2.26865923e-05 2.75487287e-06 -1.56301110e-06
      -1.09116047e-06 -6.09402014e-06 -4.54896181e-05 -3.13356613e-05
      1.18733515e-05 2.96808557e-05 4.54896181e-05 4.54896181e-05
      1.99666210e-05 1.58087623e-05 1.58087623e-05 8.99246788e-06 0. 0.
      0. 1.10067776e-05 1.41539585e-05 1.50157330e-05 1.99033602e-05
      2.56320000e-05 2.75742204e-05 2.69259835e-05 1.77953098e-06
      1.39662907e-05 -1.35157361e-05 -3.25796682e-05 -3.95982897e-05
      -3.22132837e-05 -3.39901926e-05 -3.18399725e-05 -4.23424390e-05
      -1.77953098e-06 2.55229988e-05 3.86733227e-05 4.54896181e-05
      3.04738860e-05 1.99666210e-05 1.98576199e-05 1.58087623e-05
      1.46687016e-05 0. 0. 0. 3.14718091e-06 1.50157330e-05
      1.82870499e-05 1.99033602e-05 2.55229988e-05 2.96808557e-05
      2.69259835e-05 2.16828903e-05 -6.20302080e-06 -1.01398800e-05
      -2.84244743e-05 -4.32357083e-05 -3.74563751e-05 -3.18399725e-05
      -6.38397933e-06 -6.66715778e-06 6.25371194e-06 2.67720607e-05
      4.54896181e-05 4.54896181e-05 2.60431570e-05 1.99666210e-05
      1.98576199e-05 1.58087623e-05 1.58087623e-05 0. 0. 0. 0.
      4.00895487e-06 1.94464628e-05 1.99033602e-05 2.55229988e-05
      2.96808557e-05 4.12889458e-05 2.16828903e-05 1.94289787e-05
      3.59927799e-06 -1.19507267e-05 -2.30934147e-05 -2.57466236e-05
      -1.32763362e-05 -6.66715778e-06 5.90581658e-06 3.53061587e-05
      4.54896181e-05 4.54896181e-05 3.13356613e-05 2.60431570e-05
      1.99666210e-05 1.98576199e-05 1.58087623e-05 1.14006161e-06 0. 0.
      0. 0. 0. 5.29250428e-06 5.74940077e-06 2.55229988e-05
      2.96808557e-05 2.96808557e-05 4.02465266e-05 3.73443800e-05
      3.15650468e-05 2.97374518e-05 1.85636363e-05 2.38067296e-05
      2.38067296e-05 2.60606412e-05 3.18399725e-05 3.53061587e-05
      4.54896181e-05 3.44828404e-05 3.04738860e-05 2.60431570e-05
      1.99666210e-05 5.18891875e-06 0. 0. 0. 0. 0. 0. 0. 4.43073031e-06
      4.88762680e-06 1.05072659e-05 1.14780405e-05 2.96808557e-05
      4.54896181e-05 4.54896181e-05 3.74563751e-05 3.74563751e-05
      2.38067296e-05 2.38067296e-05 3.18399725e-05 3.36675657e-05
      4.54896181e-05 4.54896181e-05 4.54896181e-05 3.13356613e-05
      3.04738860e-05 1.09175589e-05 9.77749733e-06 4.15785780e-06 0. 0.
      0. 0. 0. 0. 0. 0. 4.56896373e-07 6.07653556e-06 1.06162670e-05
      1.46651237e-05 1.66669597e-05 4.54896181e-05 4.54896181e-05
      4.54896181e-05 4.54896181e-05 4.38510287e-05 4.54896181e-05
      4.54896181e-05 4.54896181e-05 4.54896181e-05 3.44828404e-05
      1.58051862e-05 1.13938058e-05 9.77749733e-06 5.72864019e-06
      1.09000801e-07 0. 0. 0. 0. 0. 0. 0. 0. 0. 5.61963907e-06
      5.72864019e-06 9.77749733e-06 9.77749733e-06 1.65937927e-05
      3.70499329e-05 4.54896181e-05 4.54896181e-05 4.54896181e-05
      4.54896181e-05 4.54896181e-05 4.54896181e-05 3.46244669e-05
      1.13690403e-05 1.05072659e-05 6.07653556e-06 5.61963907e-06 0. 0.
      0. 0. 0. 0. 0. 0. 0. 0. 0. 0. 1.09000801e-07 4.15785780e-06
      4.15785780e-06 5.29791942e-06 1.98576199e-05 1.98576199e-05
      2.68155400e-05 2.99627209e-05 3.08244962e-05 2.94060992e-05
      1.94464628e-05 8.43968519e-06 5.74940077e-06 4.88762680e-06
      4.56896373e-07 0. 0. 0. 0. 0. 0. 0. 0. 0. 0. 0. 0. 0. 0. 0. 0. 0.
      6.81629535e-06 1.58087623e-05 1.58087623e-05 1.46687016e-05
      1.10067776e-05 1.41539585e-05 4.00895487e-06 8.61774026e-07 0. 0.
      0. 0. 0. 0. 0. 0. 0. 0. 0. 0. 0. 0. 0. 0. 0. 0. 0. 0. 0.
      1.11190475e-05 0. 0. 0. 0. 0. 0. 0. 0. 0. 0. 0. 0. 0. 0. 0. 0.</_>
    <_>
      0. 0. 0. 0. 0. 0. 0. 0. 0. 0. 0. 0. 0. 0. 0. 0. 0. 0. 0. 0. 0. 0.
      0. 0. 0. 0. 0. 0. 0. 0. 0. 0. 0. 0. 0. 0. 0. 0. 0. 0. 0. 0. 0. 0.
      0. 0. 0. 0. 0. 0. 0. 0. 0. 0. 0. 0. 0. 0. 0. 0. 0. 0. 0. 0. 0. 0.
      0. 0. 0. 0. 0. 0. 0. 0. 0. 0. 0. 0. 0. 0. 0. 0. 0. 0. 0. 0. 0. 0.
      0. 0. 0. 0. 0. 0. 0. 0. 0. 0. 0. 0. 0. 0. 0. 0. 0. 0. 0. 0. 0. 0.
      0. 0. 0. 0. 0. 0. 0. 0. 0. 0. 0. 0. -5.40660330e-05
      -1.00879770e-04 -1.04814979e-04 -2.34883497e-04 -1.90528532e-04
      -1.59334159e-04 -6.52407543e-05 0. 0. 0. 0. 0. 0. 0. 0. 0. 0. 0.
      0. 0. 0. 0. 0. 0. 0. 0. -7.22181130e-06 -8.04162410e-05
      -7.67255406e-05 -3.13364944e-05 -6.81041201e-05 -8.30092288e-20
      -8.30092288e-20 -2.36382184e-05 -6.84579063e-05 -8.04162410e-05
      -1.91283998e-05 0. 0. 0. 0. 0. 0. 0. 0. 0. 0. 0. 0. 0. 0. 0. 0.
      -7.24625643e-05 -6.72667520e-05 -1.95422053e-05 -3.78183795e-05
      -1.40380898e-05 4.68137368e-05 1.80311312e-04 9.37023942e-05
      -8.30092288e-20 5.97636754e-05 -1.60056625e-05 4.40446229e-06
      -1.03968356e-04 0. 0. 0. 0. 0. 0. 0. 0. 0. 0. 0. 0. 0. 0.
      -1.04761988e-04 -8.01512942e-05 -2.76660867e-05 5.77848232e-06
      3.68147056e-07 8.23324808e-05 3.78183795e-05 1.35319478e-05
      3.18325037e-05 2.26772863e-05 1.10741399e-04 6.48433488e-05
      4.92350919e-05 -2.74327558e-05 -1.38057352e-04 0. 0. 0. 0. 0. 0.
      0. 0. 0. 0. 0. 0. -5.97636754e-05 -9.92849164e-05 -1.53169731e-05
      -2.82958990e-05 1.32557936e-04 3.64676453e-05 -5.98445149e-05
      -7.79862894e-05 -8.09023477e-05 -1.53083951e-04 -5.43168935e-05
      6.82859582e-06 1.24258891e-04 1.87292448e-04 2.76660867e-05
      -5.77848232e-06 -1.38057352e-04 0. 0. 0. 0. 0. 0. 0. 0. 0. 0. 0.
      -9.68261375e-05 -7.68873269e-06 -1.45012073e-05 7.16188297e-05
      -5.13671075e-05 -3.69160334e-05 1.03551050e-04 9.92849164e-05
      1.71747481e-04 5.40608162e-05 -2.92005243e-05 3.60877639e-05
      1.44642072e-05 8.19248380e-05 1.18909702e-04 1.95422053e-05
      -8.80155767e-06 -5.45721741e-05 0. 0. 0. 0. 0. 0. 0. 0. 0. 0.
      -2.13298026e-05 -7.68873269e-06 -2.79052874e-05 4.02318474e-05
      -8.78578212e-05 5.77848232e-06 -1.22580110e-04 1.68428505e-05
      1.71747481e-04 1.00688972e-04 3.47174137e-05 1.44334899e-05
      -2.37864379e-06 1.00101548e-04 5.58411339e-05 1.95422053e-05
      -8.80155767e-06 0. 0. 0. 0. 0. 0. 0. 0. 0. 0. 0. 0.
      -5.18581182e-05 1.60056625e-05 -8.09516314e-06 -4.40446229e-06
      -3.73644580e-05 -1.08740962e-04 1.69645515e-04 3.82999249e-04
      2.41205096e-04 5.48212847e-05 -4.25599028e-05 -1.40435994e-04
      -1.32278874e-04 8.85114059e-05 -5.77848232e-06 2.78698863e-05 0.
      0. 0. 0. 0. 0. 0. 0. 0. 0. 0. 0. -2.13298026e-05 -5.22995970e-06
      1.84644359e-05 3.32069721e-05 -1.33803522e-04 -4.11399269e-05
      2.91755656e-04 3.82999249e-04 2.67708674e-04 1.67779217e-04
      8.87878705e-05 -1.67779217e-04 -1.74030021e-04 -4.01130346e-05
      3.78183795e-05 4.74562476e-05 0. 0. 0. 0. 0. 0. 0. 0. 0. 0. 0. 0.
      0. -2.13298026e-05 1.27410080e-04 6.84943079e-05 -1.15290575e-04
      9.68261375e-05 1.90875871e-04 2.44941912e-04 -9.92849164e-05
      -5.43168935e-05 6.88775835e-05 3.54636650e-05 -1.83394703e-04
      -7.71626874e-05 9.28072914e-05 0. 0. 0. 0. 0. 0. 0. 0. 0. 0. 0. 0.
      0. 0. -8.80155767e-06 4.10352513e-05 2.26568765e-04 6.99532320e-05
      -4.10352513e-05 -2.22878065e-04 -3.82999249e-04 -3.82999249e-04
      -4.10352513e-05 1.69577252e-04 1.90875871e-04 -6.32950614e-05
      -2.42837286e-05 -6.86064323e-06 0. 0. 0. 0. 0. 0. 0. 0. 0. 0. 0.
      0. 0. -7.11592656e-06 -1.54772424e-05 1.95422053e-05
      6.15472090e-05 -9.05383240e-06 1.97901627e-05 -2.33277424e-05
      -1.60121199e-04 -8.30092288e-20 -8.30092288e-20 2.18473593e-04
      1.76416885e-04 -3.61449020e-05 -8.73513854e-05 -4.92350919e-05
      4.49680192e-05 0. 0. 0. 0. 0. 0. 0. 0. 0. 0. 0. 0. -8.80155767e-06
      -5.77848232e-06 -3.78761179e-05 -4.16403818e-05 1.05538718e-04
      -2.69892530e-06 2.50570283e-05 7.24967176e-05 9.68261375e-05
      9.12436226e-05 1.45973288e-04 3.93748051e-05 -7.85956727e-05
      -1.29788721e-04 -8.09516314e-06 9.15961791e-05 0. 0. 0. 0. 0. 0.
      0. 0. 0. 0. 0. 4.74562476e-05 -2.39202582e-05 -3.45238295e-05
      -1.12672042e-05 5.50135737e-05 8.79900690e-05 -6.44556849e-07
      -5.96043647e-05 -4.49680192e-05 -8.30092288e-20 6.99532320e-05
      8.86716734e-05 1.36289827e-05 -1.50743304e-04 -6.72520109e-05
      -4.40446229e-06 1.15290575e-04 4.49680192e-05 0. 0. 0. 0. 0. 0. 0.
      0. 0. 0. 6.81041201e-05 -1.54772424e-05 -3.45238295e-05
      -5.50545737e-05 1.85181652e-05 6.60714650e-05 -4.75838751e-05
      -2.02188639e-05 -3.52561017e-07 1.92123392e-04 2.18473593e-04
      3.73644580e-05 -7.80375995e-05 -1.97939589e-04 -3.57987265e-05
      6.32950614e-05 1.15290575e-04 9.15961791e-05 0. 0. 0. 0. 0. 0. 0.
      0. 0. 0. 0. 8.16057509e-05 -2.43441682e-05 1.16262736e-05
      -5.47228810e-05 -6.66862325e-05 -3.85665116e-05 -5.18581182e-05
      -2.21455703e-05 4.74562476e-05 -2.39202582e-05 -1.49889311e-04
      -1.71080115e-04 -2.09103709e-05 5.06943798e-05 1.60121199e-04
      7.69941762e-05 0. 0. 0. 0. 0. 0. 0. 0. 0. 0. 0. 0. 0.
      3.12711236e-05 1.16262736e-05 -1.60056625e-05 -3.18325037e-05
      -9.48240995e-05 -1.47476152e-04 -1.57065035e-04 -2.24553107e-04
      -1.35410548e-04 -4.38225870e-05 2.31394970e-05 8.21897847e-05
      2.15220047e-04 6.85250197e-05 0. 0. 0. 0. 0. 0. 0. 0. 0. 0. 0. 0.
      0. 0. 0. 9.05991910e-05 2.35724056e-05 5.22995970e-06
      -8.30092288e-20 -8.30092288e-20 -8.30092288e-20 -8.30092288e-20
      -8.30092288e-20 1.38057352e-04 1.62355442e-04 1.38646690e-04
      5.87895411e-05 0. 0. 0. 0. 0. 0. 0. 0. 0. 0. 0. 0. 0. 0. 0. 0. 0.
      0. 4.48306273e-05 -4.34587782e-05 7.08157895e-05 1.17435724e-04
      1.15036091e-04 1.62549259e-04 9.96750969e-05 5.36421212e-05
      1.01796586e-05 0. 0. 0. 0. 0. 0. 0. 0. 0. 0. 0. 0. 0. 0. 0. 0. 0.
      0. 0. 0. 0. 7.03225523e-05 1.21081895e-04 1.27410080e-04
      6.66808482e-05 8.44301576e-06 0. 0. 0. 0. 0. 0. 0. 0. 0. 0. 0. 0.
      0. 0. 0. 0. 0. 0. 0. 0. 0. 0. 0. 0. 0. 0. 0. 0. 0. 0. 0. 0. 0. 0.
      0. 0. 0. 0. 0. 0. 0. 0. 0. 0. 0. 0. 0. 0. 0. 0. 0. 0. 0. 0. 0. 0.
      0. 0. 0. 0. 0. 0. 0. 0. 0. 0. 0. 0. 0. 0. 0. 0. 0. 0. 0. 0. 0. 0.
      0. 0. 0. 0. 0. 0. 0. 0. 0. 0. 0. 0. 0. 0. 0. 0. 0. 0. 0. 0. 0. 0.
      0. 0. 0. 0. 0. 0. 0. 0. 0. 0. 0. 0. 0. 0. 0. 0. 0. 0. 0. 0. 0. 0.
      0.</_>
    <_>
      0. 0. 0. 0. 0. 0. 0. 0. 0. 0. 0. 0. 0. 0. 0. 0. 0. 0. 0. 0. 0. 0.
      0. 0. 0. 0. 0. 0. 0. 0. 0. 0. 0. 0. 0. 0. 0. 0. 0. 0. 0. 0. 0. 0.
      0. 0. 0. 0. 0. 0. 0. 0. 0. 0. 0. 0. 0. 0. 0. 0. 0. 0. 0. 0. 0. 0.
      0. 0. 0. 0. 0. 0. 0. 0. 0. 0. 0. 0. 0. 0. 0. 0. 0. 0. 0. 0. 0. 0.
      0. 0. 0. 0. 0. 0. 0. 0. 0. 0. 0. 0. 0. 0. 0. 0. 0. 0. 0. 0. 0. 0.
      0. 0. 0. 0. 0. 0. 0. 0. 0. 0. 0. 0. 0. 0. 0. 0. 0. 0. 0. 0. 0. 0.
      0. 0. 0. 0. 0. 0. 0. 0. 0. 0. 0. 0. 0. 0. 0. 0. 0. 0.
      2.43741433e-05 5.27690427e-05 9.63858110e-05 1.15440052e-04
      1.19725519e-04 7.14638736e-05 1.81596679e-05 0. 0. 0. 0. 0. 0. 0.
      0. 0. 0. 0. 0. 0. 0. 0. 0. 0. 0. 0. 1.60100478e-06 6.41369115e-05
      5.27690427e-05 4.92054860e-05 6.82597311e-05 9.96805247e-05
      6.72253154e-05 8.57003033e-05 9.70681722e-05 4.66664897e-05
      5.26799668e-05 0. 0. 0. 0. 0. 0. 0. 0. 0. 0. 0. 0. 0. 0. 0. 0.
      6.31537914e-05 6.15081226e-05 6.41369115e-05 5.27690427e-05
      3.03682427e-05 -6.74941475e-05 -1.34905786e-04 -4.99917951e-05
      -2.92259247e-05 3.50075461e-05 6.78269935e-05 6.36231780e-05
      3.75906893e-05 0. 0. 0. 0. 0. 0. 0. 0. 0. 0. 0. 0. 0. 0. 0.
      8.43142989e-05 6.15081226e-05 1.47777910e-05 -1.23026321e-05
      -5.88170260e-05 -8.60817381e-05 -1.17949101e-04 -9.22828403e-05
      -1.28780557e-05 2.64246614e-06 8.98072612e-05 9.82256752e-05
      7.00515593e-05 8.14029918e-05 0. 0. 0. 0. 0. 0. 0. 0. 0. 0. 0. 0.
      0. 6.31537914e-05 8.43142989e-05 4.14631286e-05 -6.54578762e-05
      -9.91311172e-05 1.14388886e-05 4.52804888e-05 6.59123034e-05
      8.73742538e-05 -4.23732399e-06 4.42973687e-05 2.53857106e-05
      1.84236851e-05 7.66765952e-05 8.14029918e-05 5.10539321e-05 0. 0.
      0. 0. 0. 0. 0. 0. 0. 0. 0. 0. 6.31537914e-05 8.43142989e-05
      3.79570192e-05 -1.54845693e-04 -3.42226740e-05 -3.15151447e-05
      4.19857715e-05 1.00259422e-04 4.89940976e-05 -8.43142989e-05
      -4.40829026e-05 7.80517075e-05 9.73370043e-05 1.08901608e-04
      8.14029918e-05 5.10539321e-05 0. 0. 0. 0. 0. 0. 0. 0. 0. 0. 0. 0.
      3.50610912e-06 6.47547931e-05 -8.70270815e-05 -1.22551763e-04
      -4.82903561e-05 9.91311172e-05 1.00259422e-04 5.25002069e-05
      -4.93591215e-05 -8.43142989e-05 -8.66834234e-05 1.68068909e-05
      1.02656893e-04 1.46925915e-04 8.14029918e-05 5.10539321e-05 0. 0.
      0. 0. 0. 0. 0. 0. 0. 0. 0. 0. 0. -5.10594282e-06 -1.66485406e-04
      -1.15431481e-04 6.07563197e-05 1.53557179e-04 -2.03287907e-20
      -2.03287907e-20 2.09455029e-05 -1.01685237e-05 -8.50824144e-05
      -9.00908926e-05 -9.81737799e-07 6.87573847e-05 8.14029918e-05
      2.70810906e-05 0. 0. 0. 0. 0. 0. 0. 0. 0. 0. 0. 0. 0.
      -1.00259422e-04 -1.30827160e-04 -7.28895757e-05 1.46925915e-04
      1.30980785e-04 -2.03287907e-20 -2.03287907e-20 -6.82597311e-05
      3.50610912e-06 -1.22551763e-04 -8.14029918e-05 -4.98964255e-05
      4.39059477e-06 3.87361069e-06 0. 0. 0. 0. 0. 0. 0. 0. 0. 0. 0. 0.
      0. -5.25002069e-05 -8.31181023e-05 -1.49837215e-04 1.59451210e-05
      1.80186282e-04 3.83225233e-05 -1.25593957e-04 -2.31240207e-04
      -6.72253154e-05 1.49837215e-04 1.61713797e-05 6.72253154e-05
      2.48368087e-05 1.35759983e-05 2.30095720e-05 0. 0. 0. 0. 0. 0. 0.
      0. 0. 0. 0. 0. 0. -4.11786423e-05 -5.27690427e-05 -1.49837215e-04
      -3.05540561e-05 1.49837215e-04 9.29446978e-05 -2.18672469e-07
      -2.53857106e-05 1.84059885e-04 2.31240207e-04 9.70681722e-05
      8.45239556e-05 5.93776940e-06 -1.25692477e-05 -2.09455029e-05
      4.93591215e-05 0. 0. 0. 0. 0. 0. 0. 0. 0. 0. 0. 0. 5.10539321e-05
      -1.79842937e-05 -1.41068871e-04 -6.49394206e-05 7.67631864e-05
      1.41875760e-04 7.53714485e-05 1.66485406e-04 2.31240207e-04
      1.78739996e-04 1.21831697e-04 5.63946523e-05 -7.14978378e-05
      -9.16503559e-05 4.57943170e-05 6.31537914e-05 0. 0. 0. 0. 0. 0. 0.
      0. 0. 0. 0. 2.70810906e-05 5.10539321e-05 1.54906920e-05
      -1.04199971e-04 -1.46157792e-04 -4.41570955e-05 4.02331571e-05
      6.52540766e-05 1.05849242e-04 1.81352356e-04 1.12960966e-04
      8.11398495e-05 -7.73314750e-05 -9.89774708e-05 -5.69393160e-05
      4.80771887e-05 6.47547931e-05 4.93591215e-05 0. 0. 0. 0. 0. 0. 0.
      0. 0. 0. 5.10539321e-05 8.14029918e-05 8.14029918e-05
      7.51658445e-06 -6.28550624e-05 -1.22551763e-04 -7.97005996e-05
      5.37821397e-05 2.01489383e-05 8.16718311e-05 9.77806922e-05
      -7.24507481e-05 -9.25170607e-05 -7.69799808e-05 2.19357371e-05
      5.84659210e-05 6.47547931e-05 6.31537914e-05 0. 0. 0. 0. 0. 0. 0.
      0. 0. 0. 0. 5.43219030e-05 9.00908926e-05 1.22551763e-04
      5.54094549e-05 -5.58553256e-06 -8.36554245e-05 -1.13621354e-04
      -1.65765538e-04 -1.14273971e-04 -1.34905786e-04 -9.99493641e-05
      -9.05294728e-05 -3.60478589e-06 5.54490107e-05 4.14631286e-05
      3.49551774e-05 0. 0. 0. 0. 0. 0. 0. 0. 0. 0. 0. 0. 0.
      3.90369642e-05 1.22551763e-04 9.44257044e-05 1.41263808e-05
      1.08745107e-05 -7.52075503e-05 -1.02095430e-04 -9.41772378e-05
      -2.50518660e-05 -1.26419500e-05 3.34459583e-05 5.27690427e-05
      5.54490107e-05 4.55346490e-05 0. 0. 0. 0. 0. 0. 0. 0. 0. 0. 0. 0.
      0. 0. 0. 4.11487708e-05 6.55229160e-05 9.98266842e-05
      1.30980785e-04 9.70681722e-05 8.57003033e-05 1.02010061e-04
      9.96805247e-05 1.30483051e-04 4.92054860e-05 3.56800556e-05
      5.68350151e-05 0. 0. 0. 0. 0. 0. 0. 0. 0. 0. 0. 0. 0. 0. 0. 0. 0.
      1.34309321e-05 4.39336436e-05 4.55346490e-05 1.07242166e-04
      1.03746504e-04 1.17958079e-04 1.21245001e-04 3.90369642e-05
      1.26419500e-05 1.26419500e-05 0. 0. 0. 0. 0. 0. 0. 0. 0. 0. 0. 0.
      0. 0. 0. 0. 0. 0. 0. 0. 1.95595003e-05 1.53956753e-05
      9.02348838e-05 5.45600415e-05 2.39728397e-05 0. 0. 0. 0. 0. 0. 0.
      0. 0. 0. 0. 0. 0. 0. 0. 0. 0. 0. 0. 0. 0. 0. 0. 0. 0. 0. 0. 0. 0.
      0. 0. 0. 0. 0. 0. 0. 0. 0. 0. 0. 0. 0. 0. 0. 0. 0. 0. 0. 0. 0. 0.
      0. 0. 0. 0. 0. 0. 0. 0. 0. 0. 0. 0. 0. 0. 0. 0. 0. 0. 0. 0. 0. 0.
      0. 0. 0. 0. 0. 0. 0. 0. 0. 0. 0. 0. 0. 0. 0. 0. 0. 0. 0. 0. 0. 0.
      0. 0. 0. 0. 0. 0. 0. 0. 0. 0. 0. 0. 0. 0. 0. 0. 0. 0. 0. 0. 0. 0.
      0. 0. 0. 0. 0. 0. 0.</_>
    <_>
      0. 0. 0. 0. 0. 0. 0. 0. 0. 0. 0. 0. 0. 0. 0. 0. 0. 0. 0. 0. 0. 0.
      0. 0. 0. 0. 0. 0. 0. 0. 0. 0. 0. 0. 0. 0. 0. 0. 0. 0. 0. 0. 0. 0.
      0. 0. 0. 0. 0. 0. 0. 0. 0. 0. 0. 0. 0. 0. 0. 0. 0. 0. 0. 0. 0. 0.
      0. 0. 0. 0. 0. 0. 0. 0. 0. 0. 0. 0. 0. 0. 0. 0. 0. 0. 0. 0. 0. 0.
      0. 0. 0. 0. 0. 0. 0. 0. 0. 0. 0. 0. 0. 0. 0. 0. 0. 0. 0. 0. 0. 0.
      0. 0. 0. 0. 0. 0. 0. 0. 0. 0. 0. 0. 0. 0. 0. -4.21816185e-05 0. 0.
      0. 0. 0. 0. 0. 0. 0. 0. 0. 0. 0. 0. 0. 0. 0. 0. 0. 0. 0. 0. 0. 0.
      2.26025004e-05 3.17251179e-05 5.15767424e-05 1.00301499e-04
      1.42877310e-04 1.07933614e-04 6.12536169e-05 -2.94286619e-05 0. 0.
      0. 0. 0. 0. 0. 0. 0. 0. 0. 0. 0. 0. 0. 0. 0. 0. 2.32615025e-06
      8.40989014e-05 5.82770772e-05 5.15767424e-05 1.00301499e-04
      8.82278036e-05 4.76792884e-05 9.03257824e-05 9.03257824e-05
      5.63815520e-05 5.76393722e-05 -4.41984630e-05 0. 0. 0. 0. 0. 0. 0.
      0. 0. 0. 0. 0. 0. 0. 0. 4.76550704e-05 9.11270254e-05
      5.82770772e-05 2.56265048e-05 3.89538545e-05 -1.06421234e-04
      -1.41902521e-04 -1.69524166e-04 -6.07889269e-05 1.93443657e-06
      7.72510029e-05 8.02418726e-05 1.74179349e-05 -5.42115449e-05 0. 0.
      0. 0. 0. 0. 0. 0. 0. 0. 0. 0. 0. 0. 6.85245250e-05 4.29828615e-05
      3.96554515e-06 -1.63712102e-04 -5.82770772e-05 -9.01304593e-05
      -1.53385292e-04 -1.33296577e-04 -7.83603318e-05 -1.66117661e-05
      6.74251569e-05 1.46464459e-04 6.32077135e-05 4.62534881e-05 0. 0.
      0. 0. 0. 0. 0. 0. 0. 0. 0. 0. 0. 4.76550704e-05 6.85245250e-05
      8.01242663e-07 -1.68989558e-04 -1.63712102e-04 7.19056115e-05
      6.40089565e-05 1.24161816e-04 9.52222399e-05 5.26614122e-06
      7.16375798e-05 3.85048152e-05 6.21463050e-06 6.60631194e-05
      5.27857446e-05 7.25850696e-05 0. 0. 0. 0. 0. 0. 0. 0. 0. 0. 0. 0.
      4.76550704e-05 6.85245250e-05 -1.57940871e-04 -1.62132317e-04
      -5.23208728e-05 5.62602327e-05 5.96050813e-05 1.00301499e-04
      4.76792884e-05 -6.85245250e-05 -6.54014148e-05 -2.13468375e-05
      6.03750523e-05 6.64873369e-05 5.27857446e-05 7.25850696e-05 0. 0.
      0. 0. 0. 0. 0. 0. 0. 0. 0. 0. 0. 4.99812231e-05 -1.57940871e-04
      -1.57940871e-04 6.39870777e-05 1.15567935e-04 1.30260421e-04
      9.47331500e-05 -2.77595736e-05 -6.85245250e-05 -1.00947786e-04
      -7.88235411e-05 -1.59541705e-05 1.80543371e-04 1.00465033e-04
      7.25850696e-05 0. 0. 0. 0. 0. 0. 0. 0. 0. 0. 0. 0. 0.
      -1.20742574e-04 -1.99086673e-04 -7.88223042e-05 1.48120103e-04
      2.07922087e-04 2.49067903e-04 2.49067903e-04 1.99086673e-04
      1.18495918e-05 -3.60474041e-05 -1.12151087e-04 -7.40130636e-05
      4.87932739e-05 1.00465033e-04 3.72419854e-05 0. 0. 0. 0. 0. 0. 0.
      0. 0. 0. 0. 0. 0. -2.49067903e-04 -1.48723237e-04 -1.27549865e-05
      1.32864079e-04 1.94397726e-04 1.48766398e-04 1.57190138e-04
      -9.03257824e-05 -9.03257824e-05 -3.60613080e-06 -1.01392552e-05
      -1.22566300e-04 -1.27549865e-05 2.44409111e-05 0. 0. 0. 0. 0. 0.
      0. 0. 0. 0. 0. 0. 0. -4.76792884e-05 -1.76482819e-04
      -1.00923564e-04 9.02175889e-05 8.17496621e-05 2.44410403e-05
      -1.57940871e-04 -2.49067903e-04 -2.49067903e-04 -4.62534881e-05
      8.61570370e-05 1.24906073e-04 -8.01242663e-07 -6.21463050e-06
      -1.60214586e-05 0. 0. 0. 0. 0. 0. 0. 0. 0. 0. 0. 0. 0.
      -1.69695613e-05 -1.14022558e-04 -9.43913110e-05 -3.80554302e-05
      4.83013573e-05 -3.03731049e-05 -7.31639957e-05 -9.11270254e-05
      -5.42101086e-20 -5.42101086e-20 1.32190151e-04 1.23837744e-04
      -5.04774725e-05 -1.97304889e-05 -4.03445556e-05 2.77595736e-05 0.
      0. 0. 0. 0. 0. 0. 0. 0. 0. 0. 0. -1.92926782e-05 -2.36967808e-05
      -1.01603400e-04 1.59551996e-06 1.09200380e-04 -9.33167212e-06
      -9.11270254e-05 -9.66882089e-06 1.16877738e-04 5.42115449e-05
      6.66859851e-05 4.47498678e-06 -3.03731049e-05 -9.09672890e-05
      -4.83532131e-05 4.76550704e-05 0. 0. 0. 0. 0. 0. 0. 0. 0. 0. 0.
      3.72419854e-05 -2.21480805e-05 -2.36967808e-05 -1.63712102e-04
      -2.62844424e-05 3.05703034e-05 2.19334997e-05 -6.85245250e-05
      -3.70623347e-05 -5.42101086e-20 2.21480805e-05 2.36967808e-05
      -1.26212954e-05 -6.01204774e-05 -7.55253859e-05 8.01242663e-07
      4.99812231e-05 2.77595736e-05 0. 0. 0. 0. 0. 0. 0. 0. 0. 0.
      7.25850696e-05 5.27857446e-05 -2.36967808e-05 -6.20945648e-05
      -7.39637326e-05 8.01242663e-07 6.85245250e-05 2.69583306e-05
      -4.76550704e-05 5.42115449e-05 7.64825236e-05 2.59657299e-05
      -5.45644980e-05 -1.43912766e-04 1.47513151e-06 8.01242663e-07
      4.99812231e-05 4.76550704e-05 0. 0. 0. 0. 0. 0. 0. 0. 0. 0. 0.
      6.32230513e-05 -1.20107270e-05 -8.01242663e-07 -6.16672769e-05
      -8.53557940e-05 1.83706084e-06 2.77595736e-05 0. 3.72419854e-05
      -2.21480805e-05 -5.02487383e-05 -1.26503714e-04 -2.64046557e-05
      2.00390659e-05 9.11270254e-05 4.07649495e-05 0. 0. 0. 0. 0. 0. 0.
      0. 0. 0. 0. 0. 0. 3.95660136e-05 2.57507145e-05 2.18012574e-05
      -4.76550704e-05 -4.96512439e-05 -1.07762680e-04 -1.52598863e-04
      -1.49004365e-04 -9.53693889e-05 1.72521995e-05 1.56427323e-05
      2.36967808e-05 8.87726419e-05 4.34719514e-05 0. 0. 0. 0. 0. 0. 0.
      0. 0. 0. 0. 0. 0. 0. 0. 5.74758342e-05 5.33626117e-05
      4.89089359e-07 -5.42101086e-20 -5.42101086e-20 -5.42101086e-20
      -5.42101086e-20 -5.42101086e-20 9.18777514e-05 5.15767424e-05
      8.00783309e-05 6.83922772e-05 0. 0. 0. 0. 0. 0. 0. 0. 0. 0. 0. 0.
      0. 0. 0. 0. 0. 0. 4.11457986e-05 4.34719514e-05 6.53579773e-05
      2.66229999e-05 7.30954343e-05 1.17624542e-04 3.95660136e-05
      2.96364997e-05 2.77067738e-05 0. 0. 0. 0. 0. 0. 0. 0. 0. 0. 0. 0.
      0. 0. 0. 0. 0. 0. 0. 0. 1.85433000e-05 2.22216495e-05
      8.48970594e-05 7.25850696e-05 3.53430878e-05 1.92972493e-06 0. 0.
      0. 0. 0. 0. 0. 0. 0. 0. 0. 0. 0. 0. 0. 0. 0. 0. 0. 0. 0. 0. 0. 0.
      0. 0. 0. 0. 0. 0. 0. 0. 0. 0. 0. 0. 0. 0. 0. 0. 0. 0. 0. 0. 0. 0.
      0. 0. 0. 0. 0. 0. 0. 0. 0. 0. 0. 0. 0. 0. 0. 0. 0. 0. 0. 0. 0. 0.
      0. 0. 0. 0. 0. 0. 0. 0. 0. 0. 0. 0. 0. 0. 0. 0. 0. 0. 0. 0. 0. 0.
      0. 0. 0. 0. 0. 0. 0. 0. 0. 0. 0. 0. 0. 0. 0. 0. 0. 0. 0. 0. 0. 0.
      0. 0. 0. 0. 0. 0. 0. 0. 0. 0. 0.</_>
    <_>
      0. 0. 0. 0. 0. 0. 0. 0. 0. 0. 0. 0. 0. 0. 0. 0. 0. 0. 0. 0. 0. 0.
      0. 0. 0. 0. 0. 0. 0. 0. 0. 0. 0. 0. 0. 0. 0. 0. 0. 0. 0. 0. 0. 0.
      0. 0. 0. 0. 0. 0. 0. 0. 0. 0. 0. 0. 0. 0. 0. 0. 0. 0. 0. 0. 0. 0.
      0. 0. 0. 0. 0. 0. 0. 0. 0. 0. 0. 0. 0. 0. 0. 0. 0. 0. 0. 0. 0. 0.
      0. 0. 0. 0. 0. 0. 0. 0. 0. -3.80469937e-05 0. 0. 0. 0. 0. 0. 0. 0.
      0. 0. 0. 0. 0. 0. 0. 0. 0. 0. 0. 0. 0. 0. 0. -5.17785193e-05
      -5.17785193e-05 -8.46833937e-05 -1.66410726e-04 -1.39128373e-04
      -1.64508121e-04 -9.23240295e-05 -5.42770322e-05 -3.81743303e-05 0.
      0. 0. 0. 0. 0. 0. 0. 0. 0. 0. 0. 0. 0. 0. 0. 0. 0. -5.03344527e-05
      -1.02472179e-04 -8.46211988e-05 -9.48184170e-05 -3.99576129e-05
      -1.21972744e-19 -1.21972744e-19 -6.49422000e-05 -6.84001570e-05
      -1.23580292e-04 -6.74006660e-05 -2.78937368e-05 0. 0. 0. 0. 0. 0.
      0. 0. 0. 0. 0. 0. 0. 0. -2.11081151e-05 -4.39080395e-05
      -1.03161990e-04 -3.84656450e-05 -5.67714233e-05 -4.88609976e-06
      6.79763907e-05 1.31339213e-04 1.04120787e-04 4.64878649e-05
      -1.21972744e-19 -2.30705682e-05 -1.17739064e-05 -7.96722597e-05
      -5.76909370e-05 0. 0. 0. 0. 0. 0. 0. 0. 0. 0. 0. 0. 0.
      -5.42770322e-05 -7.25220962e-05 -8.79033250e-05 6.31559806e-06
      1.06292446e-05 7.15506467e-05 2.38665471e-05 3.99576129e-05
      4.55486224e-06 -3.42901808e-06 3.32760465e-05 6.84966508e-05
      1.00983498e-05 -3.04777768e-05 -1.22730387e-04 -3.29048744e-05 0.
      0. 0. 0. 0. 0. 0. 0. 0. 0. 0. -9.35562566e-05 -1.14664377e-04
      -5.18735105e-05 -4.14154565e-05 5.57848507e-05 3.49225083e-05
      -2.79119722e-05 -2.79119722e-05 -4.21158802e-05 -6.64509862e-05
      -1.03636103e-05 -7.09226515e-06 6.88837972e-05 1.37229843e-04
      9.11810002e-06 -2.79119722e-05 -7.09518645e-05 -3.80469937e-05 0.
      0. 0. 0. 0. 0. 0. 0. 0. -6.03873414e-05 -6.81765086e-05
      -4.59762123e-05 -2.87394178e-05 5.13860286e-05 -1.39636768e-05
      -2.74195663e-05 3.54951371e-05 3.80469937e-05 6.81765086e-05
      2.65508697e-06 -3.27561611e-05 -7.51056768e-06 2.35542102e-05
      2.20298316e-05 8.58036728e-05 5.32932791e-06 -3.09942552e-05
      -3.80469937e-05 0. 0. 0. 0. 0. 0. 0. 0. 0. -6.03873414e-05
      -6.03873414e-05 -4.58963768e-05 1.21146604e-05 -3.42586864e-05
      -7.49614483e-05 3.38243881e-05 2.79119722e-05 -7.05273987e-06
      6.03873414e-05 1.35303490e-05 -1.60572417e-05 -2.33276132e-05
      4.86815698e-05 7.61987249e-05 7.48801249e-05 3.18449020e-05
      -3.09942552e-05 -3.80469937e-05 0. 0. 0. 0. 0. 0. 0. 0. 0. 0.
      -6.03873414e-05 -3.57433601e-05 -3.12064658e-05 -3.43710644e-06
      7.94811422e-06 6.45129621e-05 -7.06575156e-05 -1.21972744e-19
      1.14664377e-04 9.89363180e-05 5.00502301e-06 -3.61560924e-05
      5.62721289e-05 8.06928729e-05 6.44223255e-05 2.38665471e-05
      -3.09942552e-05 0. 0. 0. 0. 0. 0. 0. 0. 0. 0. 0. 0.
      -6.03873414e-05 -2.19447229e-05 1.52813991e-05 6.30281793e-05
      -5.28447599e-05 -2.77693598e-05 -1.21972744e-19 1.65358026e-04
      1.11074252e-04 -6.19186903e-05 -7.17651055e-05 1.15842395e-05
      1.27267185e-05 9.45240681e-05 2.38665471e-05 -2.59026160e-06 0. 0.
      0. 0. 0. 0. 0. 0. 0. 0. 0. 0. -6.03873414e-05 -6.03873414e-05
      9.77705131e-05 4.91944811e-05 -8.34579114e-05 -1.21972744e-19
      9.88456013e-05 2.88088428e-04 -2.17136549e-04 -2.30275517e-04
      -9.72994239e-05 7.05396160e-05 9.37210352e-05 4.91944811e-05
      6.26458714e-05 0. 0. 0. 0. 0. 0. 0. 0. 0. 0. 0. 0. 0. 0.
      3.99576129e-05 5.67714233e-05 5.77859246e-05 -3.99576129e-05
      -3.84656450e-05 2.90562293e-05 -7.75726148e-05 -2.88088428e-04
      -9.48184170e-05 1.02712162e-04 2.17136549e-04 1.65475940e-04
      1.59760617e-04 1.00398938e-04 0. 0. 0. 0. 0. 0. 0. 0. 0. 0. 0. 0.
      0. 3.54567310e-05 9.48184170e-05 3.84656450e-05 8.31506622e-06
      -2.38665471e-05 -2.39958190e-05 2.12921059e-05 -2.90562293e-05
      -1.21972744e-19 -1.21972744e-19 2.88088428e-04 2.34164094e-04
      1.78276328e-04 1.23415521e-04 8.34579114e-05 5.78128966e-05 0. 0.
      0. 0. 0. 0. 0. 0. 0. 0. 0. 0. 3.99576129e-05 5.67714233e-05
      9.23686639e-06 -2.55649556e-05 5.11504732e-05 -2.37048130e-06
      -5.08107114e-05 3.12064658e-05 7.09518645e-05 1.73424050e-04
      1.71642663e-04 1.85258366e-04 1.58069219e-04 6.47995912e-05
      1.00935707e-04 6.86881613e-05 0. 0. 0. 0. 0. 0. 0. 0. 0. 0. 0.
      3.54567310e-05 6.26458714e-05 3.84656450e-05 2.52574500e-05
      2.44061321e-05 -2.68541335e-05 9.21800222e-07 -2.38587545e-05
      6.66610504e-05 1.06023384e-04 1.33466441e-04 1.32882662e-04
      1.28327796e-04 9.52129994e-05 9.92539135e-05 1.22612488e-04
      8.34579114e-05 5.78128966e-05 0. 0. 0. 0. 0. 0. 0. 0. 0. 0.
      3.99576129e-05 5.67714233e-05 3.84656450e-05 9.08685465e-08
      -3.86404827e-06 -3.68481633e-05 -1.31579000e-04 6.14455348e-05
      1.02440710e-04 2.11011473e-04 1.94532171e-04 6.96318602e-05
      1.25518316e-04 7.06575156e-05 1.53025903e-04 1.22612488e-04
      8.34579114e-05 6.49422000e-05 0. 0. 0. 0. 0. 0. 0. 0. 0. 0. 0.
      5.93616824e-05 4.91944811e-05 5.94525518e-05 2.86784561e-05
      3.10945165e-06 -6.15954341e-05 -1.15415620e-04 -1.27788007e-04
      -4.16202238e-05 -5.20185022e-05 2.66419065e-05 8.92444805e-05
      1.54115420e-04 1.67942067e-04 1.22612488e-04 2.56450094e-05 0. 0.
      0. 0. 0. 0. 0. 0. 0. 0. 0. 0. 0. 8.01887363e-05 4.27455452e-05
      5.40063884e-05 4.39258474e-06 4.68550425e-05 -5.04385207e-05
      -1.10249239e-04 -1.14634749e-04 -1.70364747e-05 1.30543980e-04
      1.42413875e-04 1.93270011e-04 1.67942067e-04 5.39243265e-05 0. 0.
      0. 0. 0. 0. 0. 0. 0. 0. 0. 0. 0. 0. 0. 7.06575156e-05
      1.26620380e-05 1.16928080e-04 1.57838789e-04 1.31339213e-04
      1.22730387e-04 1.50624124e-04 1.73424050e-04 2.19911919e-04
      1.65055215e-04 1.09812099e-04 6.70063600e-05 0. 0. 0. 0. 0. 0. 0.
      0. 0. 0. 0. 0. 0. 0. 0. 0. 0. 0. 3.91545800e-05 1.37622465e-05
      8.54931423e-05 8.57003179e-05 7.82110510e-05 1.28447165e-04
      8.01887363e-05 2.53279322e-05 1.07288342e-05 0. 0. 0. 0. 0. 0. 0.
      0. 0. 0. 0. 0. 0. 0. 0. 0. 0. 0. 0. 0. 0. 2.56450094e-05
      6.49422000e-05 9.77705131e-05 2.71891404e-05 0. 0. 0. 0. 0. 0. 0.
      0. 0. 0. 0. 0. 0. 0. 0. 0. 0. 0. 0. 0. 0. 0. 0. 0. 0. 0. 0. 0. 0.
      0. 0. 0. 0. 0. 0. 0. 0. 0. 0. 0. 0. 0. 0. 0. 0. 0. 0. 0. 0. 0. 0.
      0. 0. 0. 0. 0. 0. 0. 0. 0. 0. 0. 0. 0. 0. 0. 0. 0. 0. 0. 0. 0. 0.
      0. 0. 0. 0. 0. 0. 0. 0. 0. 0. 0. 0. 0. 0. 0. 0. 0. 0. 0. 0. 0. 0.
      0. 0. 0. 0. 0. 0. 0. 0. 0. 0. 0. 0. 0. 0. 0. 0. 0. 0. 0. 0. 0. 0.
      0. 0. 0. 0. 0. 0. 0.</_>
    <_>
      0. 0. 0. 0. 0. 0. 0. 0. 0. 0. 0. 0. 0. 0. 0. 0. 0. 0. 0. 0. 0. 0.
      0. 0. 0. 0. 0. 0. 0. 0. 0. 0. 0. 0. 0. 0. 0. 0. 0. 0. 0. 0. 0. 0.
      0. 0. 0. 0. 0. 0. 0. 0. 0. 0. 0. 0. 0. 0. 0. 0. 0. 0. 0. 0. 0. 0.
      0. 0. 0. 0. 0. 0. 0. 0. 0. 0. 0. 0. 0. 0. 0. 0. 0. 0. 0. 0. 0. 0.
      0. 0. 0. 0. 0. 0. 0. 0. 0. 0. 0. 0. 0. 0. 0. 0. 0. 0. 0. 0. 0. 0.
      0. 0. 0. 0. 0. 0. 0. 0. 0. 0. 0. 0. 0. 0. 0. 0. 0. 0. 0. 0. 0. 0.
      0. 0. 0. 0. 0. 0. 0. 0. 0. 0. 0. 0. 0. 0. 0. 0. 0. 0.
      -2.06049881e-05 -5.22131704e-05 -6.35820033e-05 -1.38913403e-19
      1.05370680e-04 4.69370643e-05 4.99566813e-05 0. 0. 0. 0. 0. 0. 0.
      0. 0. 0. 0. 0. 0. 0. 0. 0. 0. 0. 0. -3.13563687e-05
      -1.30271756e-05 -1.61720418e-05 -6.35820033e-05 -1.38913403e-19
      -1.38913403e-19 -1.38913403e-19 -1.38913403e-19 1.05370680e-04
      1.74787256e-05 8.26098185e-05 0. 0. 0. 0. 0. 0. 0. 0. 0. 0. 0. 0.
      0. 0. 0. 0. -8.01364877e-05 -8.26098185e-05 -3.28181268e-05
      -1.49292428e-05 -2.70195796e-05 3.00126203e-06 -4.17886768e-05
      -3.74152733e-05 -1.14866751e-04 6.62726598e-05 1.69859886e-05
      4.88350961e-05 1.96081874e-05 0. 0. 0. 0. 0. 0. 0. 0. 0. 0. 0. 0.
      0. 0. -4.86233839e-05 -4.88350961e-05 -8.26098185e-05
      -1.77016809e-05 -2.35794232e-05 3.28181268e-05 1.49292428e-05
      7.07346408e-05 -3.28970018e-05 -4.69370643e-05 -4.88350961e-05
      8.57624909e-05 6.06759459e-05 8.26098185e-05 5.08351040e-05 0. 0.
      0. 0. 0. 0. 0. 0. 0. 0. 0. 0. 0. -1.23804239e-05 -4.88350961e-05
      -3.39864346e-05 -3.80411402e-05 -2.35794232e-05 3.18768616e-05
      1.27301129e-04 5.67472962e-05 1.23804239e-05 -2.27608616e-05
      -8.43619728e-06 -4.73680739e-05 6.28622365e-05 8.26098185e-05
      3.28181268e-05 1.06189240e-04 0. 0. 0. 0. 0. 0. 0. 0. 0. 0. 0. 0.
      8.04886076e-06 -4.88350961e-05 -4.03726790e-06 -9.40895698e-05
      -8.07482065e-05 -4.04381244e-05 2.11118859e-05 -1.38913403e-19
      9.90018307e-05 1.72580917e-06 -7.86999153e-05 8.57436389e-05
      6.72844253e-05 8.26098185e-05 3.28181268e-05 7.97128232e-05 0. 0.
      0. 0. 0. 0. 0. 0. 0. 0. 0. 0. -7.85725497e-05 -6.06759459e-05
      -1.26045823e-04 -1.58697803e-04 -6.90829911e-05 -6.33874588e-05
      1.00842495e-04 9.12599935e-05 1.01508376e-04 -1.09332113e-05
      -7.31855689e-05 -2.44025487e-05 9.10478921e-05 1.14866751e-04
      5.01573886e-05 1.06189240e-04 0. 0. 0. 0. 0. 0. 0. 0. 0. 0. 0. 0.
      -5.67472962e-05 -1.73507389e-04 -3.52358998e-04 -1.20369812e-04
      -6.64611725e-05 9.80107361e-05 2.60326691e-04 3.65697371e-04
      2.05636257e-04 1.01137681e-04 -7.33802808e-05 -8.58420244e-05
      -2.22336064e-04 -1.25530801e-06 6.51654773e-05 5.58625288e-05 0.
      0. 0. 0. 0. 0. 0. 0. 0. 0. 0. 0. 0. -2.99665728e-04
      -2.87002185e-04 -4.69848601e-05 9.54766656e-05 4.72054351e-04
      4.72054351e-04 4.72054351e-04 0. 2.67981286e-05 -6.49785288e-05
      -1.43473168e-04 -1.77001537e-04 -8.64008252e-05 4.94419437e-05 0.
      0. 0. 0. 0. 0. 0. 0. 0. 0. 0. 0. 0. -9.12599935e-05
      -2.10884755e-04 -2.02658106e-04 3.14024946e-05 4.37461567e-05
      9.19426384e-05 8.54440998e-07 -4.09890112e-04 -3.44753207e-04
      1.68118146e-04 1.09405839e-04 1.25799968e-04 -8.97788050e-05
      -3.31426272e-05 2.93547510e-05 0. 0. 0. 0. 0. 0. 0. 0. 0. 0. 0. 0.
      0. -7.14385969e-05 -1.16853531e-04 -1.58936557e-04 -1.42106301e-05
      -4.46613876e-06 -9.74183495e-05 -1.44347592e-04 -1.95149478e-04
      -1.38913403e-19 1.72789485e-04 1.38684525e-04 1.79470706e-04
      -4.07423868e-05 -3.51539311e-05 -6.06759459e-05 2.21156042e-05 0.
      0. 0. 0. 0. 0. 0. 0. 0. 0. 0. -9.12599935e-05 -4.68092949e-05
      -7.45100333e-05 -1.31857742e-04 -1.18556411e-04 5.97037688e-05
      1.42824838e-05 -1.95149478e-04 -1.13419541e-04 -1.38913403e-19
      1.27301129e-04 7.79785041e-05 1.67300277e-06 -4.06710533e-05
      -1.82978270e-04 -1.74787256e-05 5.66722447e-05 0. 0. 0. 0. 0. 0.
      0. 0. 0. 0. 0. 5.58625288e-05 -6.66002452e-05 -1.62486413e-05
      -2.35104890e-04 -3.75048621e-05 6.96158459e-05 -1.13934393e-05
      -1.62892553e-04 -7.88628968e-05 -1.38913403e-19 1.09207482e-04
      2.55935320e-05 2.07601679e-05 -8.84520341e-05 -1.13157264e-04
      -1.65781621e-05 6.29480346e-05 7.88628968e-05 0. 0. 0. 0. 0. 0. 0.
